{"learner":{"attributes":{"scikit_learn":"{\"_estimator_type\": \"regressor\"}"},"feature_names":["num__log_area","num__year","num__quarter","num__suburb_encoded"],"feature_types":["float","float","float","float"],"gradient_booster":{"model":{"cats":{"enc":[],"feature_segments":[],"sorted_idx":[]},"gbtree_model_param":{"num_parallel_tree":"1","num_trees":"200"},"iteration_indptr":[0,1,2,3,4,5,6,7,8,9,10,11,12,13,14,15,16,17,18,19,20,21,22,23,24,25,26,27,28,29,30,31,32,33,34,35,36,37,38,39,40,41,42,43,44,45,46,47,48,49,50,51,52,53,54,55,56,57,58,59,60,61,62,63,64,65,66,67,68,69,70,71,72,73,74,75,76,77,78,79,80,81,82,83,84,85,86,87,88,89,90,91,92,93,94,95,96,97,98,99,100,101,102,103,104,105,106,107,108,109,110,111,112,113,114,115,116,117,118,119,120,121,122,123,124,125,126,127,128,129,130,131,132,133,134,135,136,137,138,139,140,141,142,143,144,145,146,147,148,149,150,151,152,153,154,155,156,157,158,159,160,161,162,163,164,165,166,167,168,169,170,171,172,173,174,175,176,177,178,179,180,181,182,183,184,185,186,187,188,189,190,191,192,193,194,195,196,197,198,199,200],"tree_info":[0,0,0,0,0,0,0,0,0,0,0,0,0,0,0,0,0,0,0,0,0,0,0,0,0,0,0,0,0,0,0,0,0,0,0,0,0,0,0,0,0,0,0,0,0,0,0,0,0,0,0,0,0,0,0,0,0,0,0,0,0,0,0,0,0,0,0,0,0,0,0,0,0,0,0,0,0,0,0,0,0,0,0,0,0,0,0,0,0,0,0,0,0,0,0,0,0,0,0,0,0,0,0,0,0,0,0,0,0,0,0,0,0,0,0,0,0,0,0,0,0,0,0,0,0,0,0,0,0,0,0,0,0,0,0,0,0,0,0,0,0,0,0,0,0,0,0,0,0,0,0,0,0,0,0,0,0,0,0,0,0,0,0,0,0,0,0,0,0,0,0,0,0,0,0,0,0,0,0,0,0,0,0,0,0,0,0,0,0,0,0,0,0,0,0,0,0,0,0,0],"trees":[{"base_weights":[-9.906047E-6,-1.9517148E-1,8.292317E-2,-7.832931E-2,-3.0338323E-1,-6.171099E-2,1.12191156E-1,-6.5321624E-2,-1.5262924E-1,-3.1911963E-1,-9.828845E-2,-1.3871709E-1,-3.4627486E-2,2.060292E-1,5.8644887E-2,-1.7696933E-1,-5.552072E-2,-1.6411129E-1,-7.2655967E-3,-2.5846523E-1,-3.4191558E-1,5.7781935E-2,-1.1429248E-1,-1.5810215E-1,-8.1550844E-2,5.9137326E-2,-5.1464815E-2,1.0027913E-1,2.2708166E-1,3.991275E-2,3.1049454E-1,-2.0386623E-1,-1.5267439E-1,1.5892628E-1,-6.0040634E-2,-6.2064564E-1,-1.6246638E-1,5.2481905E-2,-3.965758E-2,-2.0716664E-1,-2.731385E-1,-2.2857416E-1,-3.5157555E-1,2.2171497E-1,2.4829567E-3,-1.534819E-1,-5.137268E-2,-8.7037496E-2,-1.7457232E-1,-8.85476E-2,-3.8293023E-3,1.7428146E-1,2.7404526E-2,-3.8319092E-2,-1.1075092E-1,-6.68389E-3,1.3471407E-1,1.3455875E-1,2.4881871E-1,-6.468227E-2,8.252487E-2,1.9946702E-1,3.3592656E-1,-2.5299896E-2,-1.9271959E-2,-9.9323625E-3,-1.8662808E-2,-2.4430333E-3,2.743038E-2,-4.6620578E-2,-5.8519854E-3,-8.525827E-2,-4.4930365E-2,-1.5295871E-2,-2.0140756E-2,-3.9122988E-2,5.509948E-3,-7.5189876E-3,-9.048029E-4,-3.7001055E-2,-1.90414E-2,-4.1371178E-2,-2.6095754E-2,-4.882093E-3,-2.7206838E-2,-3.7754342E-2,-3.0630026E-2,-1.1350381E-1,2.7996272E-2,3.5966765E-2,-1.1165092E-3,-1.8258892E-2,-1.2072484E-2,-7.969647E-3,3.91328E-4,-1.1419818E-2,-4.731172E-3,-2.0526843E-2,-1.1119723E-2,-3.970001E-3,-9.771752E-3,1.12366E-3,-1.4015533E-2,4.102234E-2,1.3275548E-2,-3.029696E-3,1.6345201E-2,-9.08524E-3,-1.5603136E-3,-2.600417E-2,-1.2751707E-4,4.480357E-3,-9.174322E-3,1.8667642E-2,7.0514367E-3,8.959555E-3,1.4973705E-2,2.9544566E-2,1.9530555E-2,-1.0075216E-2,-1.6083618E-3,-7.822637E-3,8.641408E-3,1.041506E-2,2.8277684E-2,3.5669502E-2,3.0131435E-2],"categories":[],"categories_nodes":[],"categories_segments":[],"categories_sizes":[],"default_left":[0,0,0,0,0,0,0,0,0,0,0,0,0,0,0,0,0,0,0,0,0,0,0,0,0,0,0,0,0,0,0,0,0,0,0,0,0,0,0,0,0,0,0,0,0,0,0,0,0,0,0,0,0,0,0,0,0,0,0,0,0,0,0,0,0,0,0,0,0,0,0,0,0,0,0,0,0,0,0,0,0,0,0,0,0,0,0,0,0,0,0,0,0,0,0,0,0,0,0,0,0,0,0,0,0,0,0,0,0,0,0,0,0,0,0,0,0,0,0,0,0,0,0,0,0,0,0],"id":0,"left_children":[1,3,5,7,9,11,13,15,17,19,21,23,25,27,29,31,33,35,37,39,41,43,45,47,49,51,53,55,57,59,61,63,65,67,69,71,73,75,77,79,81,83,85,87,89,91,93,95,97,99,101,103,105,107,109,111,113,115,117,119,121,123,125,-1,-1,-1,-1,-1,-1,-1,-1,-1,-1,-1,-1,-1,-1,-1,-1,-1,-1,-1,-1,-1,-1,-1,-1,-1,-1,-1,-1,-1,-1,-1,-1,-1,-1,-1,-1,-1,-1,-1,-1,-1,-1,-1,-1,-1,-1,-1,-1,-1,-1,-1,-1,-1,-1,-1,-1,-1,-1,-1,-1,-1,-1,-1,-1],"loss_changes":[1.9435625E4,4.5277607E3,3.5673262E3,1.6640466E2,6.000137E2,2.957951E2,3.5216895E3,1.6033704E2,4.281549E1,2.386582E2,3.3101868E1,4.0881958E1,1.6565799E2,5.66875E2,2.10523E3,7.695984E0,1.305835E2,1.7753174E1,3.6385856E0,3.545044E1,1.373252E2,1.1177E1,2.9625977E1,3.223883E1,5.08255E0,5.836176E1,6.932362E1,1.5572195E2,4.270586E2,1.85124E3,8.716431E1,3.0231018E0,1.1243286E1,5.8839394E1,8.14657E1,2.9948769E0,8.74054E0,7.892747E-1,1.3251377E0,2.8563324E1,6.2694824E1,7.706659E1,1.3584375E2,2.4895412E1,4.5035243E0,7.0383453E0,7.2254105E0,5.591259E0,4.349701E1,3.8371124E0,1.5892199E0,3.37575E1,9.832013E1,8.688835E1,2.6385263E2,4.50997E1,1.06677734E2,2.755957E1,4.2900684E2,2.1076056E2,1.8451501E2,4.570952E1,1.7959473E1,0E0,0E0,0E0,0E0,0E0,0E0,0E0,0E0,0E0,0E0,0E0,0E0,0E0,0E0,0E0,0E0,0E0,0E0,0E0,0E0,0E0,0E0,0E0,0E0,0E0,0E0,0E0,0E0,0E0,0E0,0E0,0E0,0E0,0E0,0E0,0E0,0E0,0E0,0E0,0E0,0E0,0E0,0E0,0E0,0E0,0E0,0E0,0E0,0E0,0E0,0E0,0E0,0E0,0E0,0E0,0E0,0E0,0E0,0E0,0E0,0E0,0E0,0E0,0E0],"parents":[2147483647,0,0,1,1,2,2,3,3,4,4,5,5,6,6,7,7,8,8,9,9,10,10,11,11,12,12,13,13,14,14,15,15,16,16,17,17,18,18,19,19,20,20,21,21,22,22,23,23,24,24,25,25,26,26,27,27,28,28,29,29,30,30,31,31,32,32,33,33,34,34,35,35,36,36,37,37,38,38,39,39,40,40,41,41,42,42,43,43,44,44,45,45,46,46,47,47,48,48,49,49,50,50,51,51,52,52,53,53,54,54,55,55,56,56,57,57,58,58,59,59,60,60,61,61,62,62],"right_children":[2,4,6,8,10,12,14,16,18,20,22,24,26,28,30,32,34,36,38,40,42,44,46,48,50,52,54,56,58,60,62,64,66,68,70,72,74,76,78,80,82,84,86,88,90,92,94,96,98,100,102,104,106,108,110,112,114,116,118,120,122,124,126,-1,-1,-1,-1,-1,-1,-1,-1,-1,-1,-1,-1,-1,-1,-1,-1,-1,-1,-1,-1,-1,-1,-1,-1,-1,-1,-1,-1,-1,-1,-1,-1,-1,-1,-1,-1,-1,-1,-1,-1,-1,-1,-1,-1,-1,-1,-1,-1,-1,-1,-1,-1,-1,-1,-1,-1,-1,-1,-1,-1,-1,-1,-1,-1],"split_conditions":[-3.5281435E-1,-5.3463254E-2,-8.408009E-1,-2.2845475E-1,4.263016E0,-1.0750669E0,-2.2666983E-3,-1.0891194E0,-5.5997476E-2,9.335696E-2,-1.4517785E0,1.1124712E0,-1.0064261E0,1.3507059E-2,4.263016E0,-1.180885E0,-1.0681586E0,-2.5507429E0,-1.0854572E0,5.450707E-4,-1.4517785E0,1.3290975E0,-7.1913576E-1,-1.3292422E0,-1.0891194E0,-1.0681586E0,-8.750229E-1,-4.8056865E-1,-6.534925E-1,3.7982845E-1,1.3507059E-2,-1.4967195E0,-1.1487591E0,-1.0750669E0,-2.9170642E0,-2.9170642E0,-7.1699016E-2,-2.1844213E0,-7.1913576E-1,-4.7634106E-2,7.941027E-3,1.3290975E0,-7.1913576E-1,-2.5507429E0,-1.8181E0,-1.0854572E0,1.3290975E0,7.461499E-1,-1.1257149E0,-1.4967195E0,1.4787927E0,1.3507059E-2,-1.0186697E0,-9.6698946E-1,-8.601238E-1,-2.4094573E-1,-2.8929415E-1,-4.8056865E-1,-2.2845475E-1,1.3507059E-2,7.941027E-3,4.2426443E-1,1.1124712E0,-2.5299896E-2,-1.9271959E-2,-9.9323625E-3,-1.8662808E-2,-2.4430333E-3,2.743038E-2,-4.6620578E-2,-5.8519854E-3,-8.525827E-2,-4.4930365E-2,-1.5295871E-2,-2.0140756E-2,-3.9122988E-2,5.509948E-3,-7.5189876E-3,-9.048029E-4,-3.7001055E-2,-1.90414E-2,-4.1371178E-2,-2.6095754E-2,-4.882093E-3,-2.7206838E-2,-3.7754342E-2,-3.0630026E-2,-1.1350381E-1,2.7996272E-2,3.5966765E-2,-1.1165092E-3,-1.8258892E-2,-1.2072484E-2,-7.969647E-3,3.91328E-4,-1.1419818E-2,-4.731172E-3,-2.0526843E-2,-1.1119723E-2,-3.970001E-3,-9.771752E-3,1.12366E-3,-1.4015533E-2,4.102234E-2,1.3275548E-2,-3.029696E-3,1.6345201E-2,-9.08524E-3,-1.5603136E-3,-2.600417E-2,-1.2751707E-4,4.480357E-3,-9.174322E-3,1.8667642E-2,7.0514367E-3,8.959555E-3,1.4973705E-2,2.9544566E-2,1.9530555E-2,-1.0075216E-2,-1.6083618E-3,-7.822637E-3,8.641408E-3,1.041506E-2,2.8277684E-2,3.5669502E-2,3.0131435E-2],"split_indices":[1,0,0,0,0,0,0,0,0,0,1,1,0,1,0,0,0,1,1,0,1,2,1,0,0,0,0,2,0,1,1,0,0,0,1,1,0,1,1,0,0,2,1,1,1,1,2,1,0,0,1,1,0,0,0,0,0,2,0,1,0,2,1,0,0,0,0,0,0,0,0,0,0,0,0,0,0,0,0,0,0,0,0,0,0,0,0,0,0,0,0,0,0,0,0,0,0,0,0,0,0,0,0,0,0,0,0,0,0,0,0,0,0,0,0,0,0,0,0,0,0,0,0,0,0,0,0],"split_type":[0,0,0,0,0,0,0,0,0,0,0,0,0,0,0,0,0,0,0,0,0,0,0,0,0,0,0,0,0,0,0,0,0,0,0,0,0,0,0,0,0,0,0,0,0,0,0,0,0,0,0,0,0,0,0,0,0,0,0,0,0,0,0,0,0,0,0,0,0,0,0,0,0,0,0,0,0,0,0,0,0,0,0,0,0,0,0,0,0,0,0,0,0,0,0,0,0,0,0,0,0,0,0,0,0,0,0,0,0,0,0,0,0,0,0,0,0,0,0,0,0,0,0,0,0,0,0],"sum_hessian":[1.200814E6,3.58105E5,8.42709E5,1.72187E5,1.85918E5,1.41829E5,7.0088E5,1.46535E5,2.5652E4,1.72669E5,1.3249E4,3.6902E4,1.04927E5,2.54636E5,4.46244E5,1.1824E4,1.34711E5,2.3774E4,1.878E3,4.7171E4,1.25498E5,1.232E3,1.2017E4,2.7556E4,9.346E3,1.5973E4,8.8954E4,4.2277E4,2.12359E5,4.15352E5,3.0892E4,5.608E3,6.216E3,2.78E3,1.31931E5,8.4E1,2.369E4,6.6E2,1.218E3,1.0495E4,3.6676E4,9.858E3,1.1564E5,3.1E2,9.22E2,7.404E3,4.613E3,5.186E3,2.237E4,8.574E3,7.72E2,3.45E3,1.2523E4,7.2811E4,1.6143E4,1.0296E4,3.1981E4,4.0401E4,1.71958E5,1.20232E5,2.9512E5,5.759E3,2.5133E4,1.033E3,4.575E3,2.419E3,3.797E3,1.074E3,1.706E3,4.91E2,1.3144E5,3.4E1,5E1,1.9045E4,4.645E3,3E0,6.57E2,5.63E2,6.55E2,9.77E2,9.518E3,2.922E3,3.3754E4,1.921E3,7.937E3,7.3485E4,4.2155E4,1.2E1,2.98E2,3.3E1,8.89E2,3.918E3,3.486E3,3.05E3,1.563E3,3.079E3,2.107E3,1.5069E4,7.301E3,1.356E3,7.218E3,6.96E2,7.6E1,5.15E2,2.935E3,8.794E3,3.729E3,2.1979E4,5.0832E4,6.829E3,9.314E3,6.414E3,3.882E3,1.7674E4,1.4307E4,1.0198E4,3.0203E4,9.1889E4,8.0069E4,6.9011E4,5.1221E4,6.971E3,2.88149E5,2.687E3,3.072E3,1.5702E4,9.431E3],"tree_param":{"num_deleted":"0","num_feature":"4","num_nodes":"127","size_leaf_vector":"1"}},{"base_weights":[6.902065E-5,-2.710874E-1,4.75617E-1,-7.960135E-1,-1.4590722E-1,3.237331E-1,8.969954E-1,-1.2598188E0,-6.736872E-1,-2.986545E-1,-3.53497E-2,2.0455383E-1,4.5162967E-1,8.041205E-1,1.2856989E0,-1.5190997E0,-1.1020423E0,-8.917182E-1,-5.3240883E-1,-5.182846E-1,-2.1876845E-1,-1.9258036E-1,4.5753997E-2,3.300499E-2,2.7671382E-1,2.2302727E-1,5.2345943E-1,5.141762E-1,8.7341744E-1,6.2755686E-1,1.3963851E0,-1.5870124E0,-8.634148E-1,-1.3315433E0,-9.581348E-1,-9.399982E-1,-5.7763374E-1,-5.733564E-1,-2.2431614E-1,-6.383589E-1,-4.4553044E-1,-2.605327E-1,-1.8079551E-2,-3.1299576E-1,-1.4925636E-1,-1.6126195E-1,1.0019922E-1,-3.7964962E-2,8.0492236E-2,9.22944E-2,3.7108076E-1,-4.7393776E-3,2.898565E-1,3.1961405E-1,6.0543025E-1,2.1974428E-1,6.04707E-1,6.6361004E-1,9.579352E-1,3.631215E-1,7.676014E-1,1.3334129E0,1.7461382E0,-1.7812823E-1,-1.4863218E-1,-1.00932896E-1,-7.446842E-2,-1.4283495E-1,-9.0667404E-2,-1.0287875E-1,-5.548486E-2,-1.1271137E-1,-8.428104E-2,-6.8370715E-2,-4.365615E-2,-6.8182535E-2,-4.4060323E-2,-3.205877E-2,-9.625119E-3,-6.650951E-2,-4.185268E-2,-4.6683975E-2,-2.412831E-2,-3.5975914E-2,-1.9784365E-2,-1.0351128E-2,9.873253E-3,-3.310401E-2,-1.7441487E-2,-1.57836E-2,1.0858512E-2,-2.3531098E-2,-7.894905E-3,5.6139464E-3,2.6857981E-2,-7.217411E-3,7.226857E-3,5.2812053E-3,2.116622E-2,-2.4751788E-3,1.3978824E-2,2.9075524E-2,5.0083507E-2,-4.5641962E-2,6.2845135E-4,-4.3579214E-3,2.9807542E-2,1.90938E-2,3.9658897E-2,5.3053338E-2,7.55591E-2,6.713133E-3,2.7351746E-2,5.1707763E-2,9.21716E-2,6.1835404E-2,8.92891E-2,9.0461925E-2,1.21237755E-1,2.8516224E-2,5.2899737E-2,7.1826406E-2,9.467989E-2,1.1032524E-1,1.4295441E-1,1.5583631E-1,1.8214934E-1],"categories":[],"categories_nodes":[],"categories_segments":[],"categories_sizes":[],"default_left":[0,0,0,0,0,0,0,0,0,0,0,0,0,0,0,0,0,0,0,0,0,0,0,0,0,0,0,0,0,0,0,0,0,0,0,0,0,0,0,0,0,0,0,0,0,0,0,0,0,0,0,0,0,0,0,0,0,0,0,0,0,0,0,0,0,0,0,0,0,0,0,0,0,0,0,0,0,0,0,0,0,0,0,0,0,0,0,0,0,0,0,0,0,0,0,0,0,0,0,0,0,0,0,0,0,0,0,0,0,0,0,0,0,0,0,0,0,0,0,0,0,0,0,0,0,0,0],"id":1,"left_children":[1,3,5,7,9,11,13,15,17,19,21,23,25,27,29,31,33,35,37,39,41,43,45,47,49,51,53,55,57,59,61,63,65,67,69,71,73,75,77,79,81,83,85,87,89,91,93,95,97,99,101,103,105,107,109,111,113,115,117,119,121,123,125,-1,-1,-1,-1,-1,-1,-1,-1,-1,-1,-1,-1,-1,-1,-1,-1,-1,-1,-1,-1,-1,-1,-1,-1,-1,-1,-1,-1,-1,-1,-1,-1,-1,-1,-1,-1,-1,-1,-1,-1,-1,-1,-1,-1,-1,-1,-1,-1,-1,-1,-1,-1,-1,-1,-1,-1,-1,-1,-1,-1,-1,-1,-1,-1],"loss_changes":[1.5497214E5,5.0294184E4,2.7931234E4,8.360789E3,1.0436649E4,4.889707E3,4.1732656E3,1.256543E3,3.591871E3,4.552826E3,4.5718765E3,2.0556416E3,2.5407676E3,1.8748047E3,1.6234688E3,5.166367E2,6.303633E2,6.9478906E2,8.926797E2,6.0433594E2,1.5948926E3,6.364282E2,2.6658398E3,1.6571422E2,2.0342314E3,5.631653E2,1.9672031E3,4.7981982E2,1.3350977E3,1.1867029E2,4.180586E2,2.035293E2,1.8201355E1,3.0175098E2,3.3445312E2,7.2178906E2,9.116162E1,8.991992E2,1.0234924E2,1.5318945E2,1.8747852E2,9.796885E2,3.2712683E2,8.066138E1,1.9850317E2,3.0018164E2,1.3892981E3,7.4339066E1,1.0694884E2,2.1996088E2,8.057705E2,4.179889E1,7.84043E1,3.3441016E2,9.4400586E2,3.4744293E1,3.8207178E2,2.2392969E2,7.273086E2,1.4254898E1,1.7877441E1,3.5639062E2,3.8323242E1,0E0,0E0,0E0,0E0,0E0,0E0,0E0,0E0,0E0,0E0,0E0,0E0,0E0,0E0,0E0,0E0,0E0,0E0,0E0,0E0,0E0,0E0,0E0,0E0,0E0,0E0,0E0,0E0,0E0,0E0,0E0,0E0,0E0,0E0,0E0,0E0,0E0,0E0,0E0,0E0,0E0,0E0,0E0,0E0,0E0,0E0,0E0,0E0,0E0,0E0,0E0,0E0,0E0,0E0,0E0,0E0,0E0,0E0,0E0,0E0,0E0,0E0,0E0,0E0],"parents":[2147483647,0,0,1,1,2,2,3,3,4,4,5,5,6,6,7,7,8,8,9,9,10,10,11,11,12,12,13,13,14,14,15,15,16,16,17,17,18,18,19,19,20,20,21,21,22,22,23,23,24,24,25,25,26,26,27,27,28,28,29,29,30,30,31,31,32,32,33,33,34,34,35,35,36,36,37,37,38,38,39,39,40,40,41,41,42,42,43,43,44,44,45,45,46,46,47,47,48,48,49,49,50,50,51,51,52,52,53,53,54,54,55,55,56,56,57,57,58,58,59,59,60,60,61,61,62,62],"right_children":[2,4,6,8,10,12,14,16,18,20,22,24,26,28,30,32,34,36,38,40,42,44,46,48,50,52,54,56,58,60,62,64,66,68,70,72,74,76,78,80,82,84,86,88,90,92,94,96,98,100,102,104,106,108,110,112,114,116,118,120,122,124,126,-1,-1,-1,-1,-1,-1,-1,-1,-1,-1,-1,-1,-1,-1,-1,-1,-1,-1,-1,-1,-1,-1,-1,-1,-1,-1,-1,-1,-1,-1,-1,-1,-1,-1,-1,-1,-1,-1,-1,-1,-1,-1,-1,-1,-1,-1,-1,-1,-1,-1,-1,-1,-1,-1,-1,-1,-1,-1,-1,-1,-1,-1,-1,-1],"split_conditions":[2.2813079E-1,-1.0134475E0,1.3278809E0,-2.034883E0,-3.4758174E-1,7.061266E-1,2.3300703E0,-2.7367535E0,1.3507059E-2,-3.5281435E-1,-3.5281435E-1,-3.5281435E-1,-8.2669497E-1,-6.641223E-1,-9.384922E-1,4.263016E0,1.3507059E-2,8.6626655E-1,8.6626655E-1,-6.9615775E-1,2.8728592E-1,-1.6544019E-1,-7.690355E-1,4.0397152E-1,-6.048688E-1,-1.0891194E0,-3.5281435E-1,-1.0750669E0,-3.5281435E-1,2.4248095E0,3.033372E0,1.3507059E-2,1.3507059E-2,1.1697696E0,1.4056209E0,-1.5235211E0,-1.3899181E0,-1.3534093E0,-1.3899181E0,5.2139264E-1,4.32269E-1,-6.464687E-1,-6.3745296E-1,2.954399E-1,8.6626655E-1,-2.1935489E-2,2.1364716E-1,1.7412998E-1,1.1668725E-1,-9.907725E-1,9.335696E-2,7.236993E-1,7.540198E-1,8.507405E-1,1.415041E-1,-3.5281435E-1,2.0148952E0,4.1815376E-1,3.9674336E-1,-1.1257149E0,3.033372E0,-3.5281435E-1,-3.5281435E-1,-1.7812823E-1,-1.4863218E-1,-1.00932896E-1,-7.446842E-2,-1.4283495E-1,-9.0667404E-2,-1.0287875E-1,-5.548486E-2,-1.1271137E-1,-8.428104E-2,-6.8370715E-2,-4.365615E-2,-6.8182535E-2,-4.4060323E-2,-3.205877E-2,-9.625119E-3,-6.650951E-2,-4.185268E-2,-4.6683975E-2,-2.412831E-2,-3.5975914E-2,-1.9784365E-2,-1.0351128E-2,9.873253E-3,-3.310401E-2,-1.7441487E-2,-1.57836E-2,1.0858512E-2,-2.3531098E-2,-7.894905E-3,5.6139464E-3,2.6857981E-2,-7.217411E-3,7.226857E-3,5.2812053E-3,2.116622E-2,-2.4751788E-3,1.3978824E-2,2.9075524E-2,5.0083507E-2,-4.5641962E-2,6.2845135E-4,-4.3579214E-3,2.9807542E-2,1.90938E-2,3.9658897E-2,5.3053338E-2,7.55591E-2,6.713133E-3,2.7351746E-2,5.1707763E-2,9.21716E-2,6.1835404E-2,8.92891E-2,9.0461925E-2,1.21237755E-1,2.8516224E-2,5.2899737E-2,7.1826406E-2,9.467989E-2,1.1032524E-1,1.4295441E-1,1.5583631E-1,1.8214934E-1],"split_indices":[3,3,3,3,3,3,3,3,1,1,1,1,0,0,0,0,1,0,0,3,0,3,0,3,0,0,1,0,1,3,3,1,1,0,0,3,3,3,3,0,0,3,3,0,0,3,0,0,0,0,0,3,3,3,0,1,3,0,0,0,3,1,1,0,0,0,0,0,0,0,0,0,0,0,0,0,0,0,0,0,0,0,0,0,0,0,0,0,0,0,0,0,0,0,0,0,0,0,0,0,0,0,0,0,0,0,0,0,0,0,0,0,0,0,0,0,0,0,0,0,0,0,0,0,0,0,0],"split_type":[0,0,0,0,0,0,0,0,0,0,0,0,0,0,0,0,0,0,0,0,0,0,0,0,0,0,0,0,0,0,0,0,0,0,0,0,0,0,0,0,0,0,0,0,0,0,0,0,0,0,0,0,0,0,0,0,0,0,0,0,0,0,0,0,0,0,0,0,0,0,0,0,0,0,0,0,0,0,0,0,0,0,0,0,0,0,0,0,0,0,0,0,0,0,0,0,0,0,0,0,0,0,0,0,0,0,0,0,0,0,0,0,0,0,0,0,0,0,0,0,0,0,0,0,0,0,0],"sum_hessian":[1.201818E6,7.65393E5,4.36425E5,1.47378E5,6.18015E5,3.20797E5,1.15628E5,3.0756E4,1.16622E5,2.59494E5,3.58521E5,1.66059E5,1.54738E5,9.3331E4,2.2297E4,1.1632E4,1.9124E4,4.5853E4,7.0769E4,6.921E4,1.90284E5,1.22002E5,2.36519E5,4.9169E4,1.1689E5,3.6997E4,1.17741E5,1.8005E4,7.5326E4,3.211E3,1.9086E4,1.0539E4,1.093E3,7.367E3,1.1757E4,3.9742E4,6.111E3,6.2466E4,8.303E3,2.611E4,4.31E4,1.57506E5,3.2778E4,3.2279E4,8.9723E4,4.9251E4,1.87268E5,1.9711E4,2.9458E4,3.9567E4,7.7323E4,8.393E3,2.8604E4,3.3769E4,8.3972E4,4.235E3,1.377E4,2.1633E4,5.3693E4,1.113E3,2.098E3,1.6178E4,2.908E3,3.592E3,6.947E3,4.87E2,6.06E2,5.998E3,1.369E3,1.0003E4,1.754E3,1.3582E4,2.616E4,3.486E3,2.625E3,3.4375E4,2.8091E4,4.739E3,3.564E3,2.3277E4,2.833E3,3.9027E4,4.073E3,6.098E4,9.6526E4,1.8932E4,1.3846E4,2.8559E4,3.72E3,8.6834E4,2.889E3,2.5926E4,2.3325E4,1.4843E5,3.8838E4,1.5043E4,4.668E3,2.4326E4,5.132E3,1.1421E4,2.8146E4,4.776E4,2.9563E4,1.99E2,8.194E3,6.88E2,2.7916E4,1.2641E4,2.1128E4,5.603E4,2.7942E4,1.104E3,3.131E3,1.079E4,2.98E3,1.807E4,3.563E3,4.4395E4,9.298E3,7.59E2,3.54E2,1.649E3,4.49E2,4.77E3,1.1408E4,8.39E2,2.069E3],"tree_param":{"num_deleted":"0","num_feature":"4","num_nodes":"127","size_leaf_vector":"1"}},{"base_weights":[-1.0710494E-4,-2.7809164E-1,3.7559584E-1,-7.397727E-1,-1.6497776E-1,2.2848812E-1,7.5469995E-1,-1.1867613E0,-6.368376E-1,-2.9874426E-1,-7.3646486E-2,1.3673669E-1,3.636059E-1,6.413227E-1,1.0368786E0,-1.2508695E0,-6.56537E-1,-7.6193005E-1,-5.4436857E-1,-3.869763E-1,-2.450194E-1,-1.0784645E-1,8.031364E-2,8.293709E-2,2.7581936E-1,3.0169758E-1,5.5502087E-1,3.461643E-1,7.139082E-1,5.4603165E-1,1.1230253E0,-1.4275869E0,-1.0984373E0,-7.465794E-1,-5.3296775E-1,-8.1024605E-1,-4.0860975E-1,-5.7855237E-1,-2.4654864E-1,-4.1827556E-1,-1.6112179E-1,-2.847899E-1,-9.562535E-2,-2.0532812E-1,-7.827419E-2,-2.9042538E-2,1.5633412E-1,-1.11794695E-1,1.0079147E-1,1.958156E-1,4.3578595E-1,8.384345E-3,3.294796E-1,4.2436796E-1,6.9573414E-1,1.6982362E-1,4.4760555E-1,6.7068547E-1,9.471788E-1,4.5219833E-1,7.851476E-1,9.6023935E-1,1.2627729E0,-1.5578148E-1,-1.4015776E-1,-1.1830125E-1,-1.0447323E-1,-7.712447E-2,-6.7371316E-2,-5.047809E-2,-5.586608E-2,-8.92668E-2,-7.563589E-2,-5.22519E-2,-3.6449403E-2,-6.327223E-2,-5.2411623E-2,-2.9475976E-2,-1.2356027E-2,-4.3593615E-2,-3.2241408E-2,-2.4865346E-2,-8.3014965E-3,-4.3745775E-2,-2.7381955E-2,-1.3672133E-2,-7.662633E-4,-3.4694087E-2,-1.6921382E-2,-1.045866E-2,6.8390244E-3,-7.3119323E-3,4.0822173E-3,1.0447543E-2,2.5894135E-2,-1.7186878E-2,9.146991E-6,6.532612E-3,1.806635E-2,1.5377142E-2,4.101965E-2,5.9049662E-2,4.1830845E-2,1.824549E-3,-6.6758655E-2,2.9654521E-2,4.2233717E-2,5.1730435E-2,3.86963E-2,7.485229E-2,5.5645227E-2,1.2668396E-2,2.6433099E-2,3.5267424E-2,4.913379E-2,6.059405E-2,7.0886664E-2,1.05501615E-1,7.4421465E-2,3.1918213E-2,6.524132E-2,8.71126E-2,3.2560986E-2,8.1168704E-2,1.141958E-1,1.2055578E-1,1.5768796E-1],"categories":[],"categories_nodes":[],"categories_segments":[],"categories_sizes":[],"default_left":[0,0,0,0,0,0,0,0,0,0,0,0,0,0,0,0,0,0,0,0,0,0,0,0,0,0,0,0,0,0,0,0,0,0,0,0,0,0,0,0,0,0,0,0,0,0,0,0,0,0,0,0,0,0,0,0,0,0,0,0,0,0,0,0,0,0,0,0,0,0,0,0,0,0,0,0,0,0,0,0,0,0,0,0,0,0,0,0,0,0,0,0,0,0,0,0,0,0,0,0,0,0,0,0,0,0,0,0,0,0,0,0,0,0,0,0,0,0,0,0,0,0,0,0,0,0,0],"id":2,"left_children":[1,3,5,7,9,11,13,15,17,19,21,23,25,27,29,31,33,35,37,39,41,43,45,47,49,51,53,55,57,59,61,63,65,67,69,71,73,75,77,79,81,83,85,87,89,91,93,95,97,99,101,103,105,107,109,111,113,115,117,119,121,123,125,-1,-1,-1,-1,-1,-1,-1,-1,-1,-1,-1,-1,-1,-1,-1,-1,-1,-1,-1,-1,-1,-1,-1,-1,-1,-1,-1,-1,-1,-1,-1,-1,-1,-1,-1,-1,-1,-1,-1,-1,-1,-1,-1,-1,-1,-1,-1,-1,-1,-1,-1,-1,-1,-1,-1,-1,-1,-1,-1,-1,-1,-1,-1,-1],"loss_changes":[1.2549619E5,3.6065867E4,2.8497523E4,6.2524297E3,6.776966E3,4.5638965E3,4.569578E3,8.638633E2,1.2774102E3,1.0667969E3,1.7357366E3,1.6405952E3,1.7641465E3,2.1830938E3,1.7307031E3,6.0971875E2,3.0155396E1,8.011504E2,6.46541E2,6.020615E2,8.3114355E2,7.775486E2,4.98113E2,5.497062E2,7.8258496E2,9.1675684E2,6.686113E2,3.597815E2,8.240625E2,1.3684753E2,7.911328E2,3.3402344E1,5.4123047E1,2.3308716E0,5.588074E-1,1.8276367E2,2.8201843E1,1.676914E2,3.8753784E1,1.2651074E2,7.087033E1,1.8491602E2,1.063244E2,3.2101367E2,7.9865063E2,7.567029E1,1.8805164E2,8.925424E1,4.1023242E2,3.6740698E2,5.4881348E1,6.4904205E1,3.1416113E2,6.53938E1,1.2837012E2,2.9924423E1,5.2842285E1,1.7016797E2,2.7901855E2,1.1681201E2,6.7753174E1,4.3349902E2,3.348496E2,0E0,0E0,0E0,0E0,0E0,0E0,0E0,0E0,0E0,0E0,0E0,0E0,0E0,0E0,0E0,0E0,0E0,0E0,0E0,0E0,0E0,0E0,0E0,0E0,0E0,0E0,0E0,0E0,0E0,0E0,0E0,0E0,0E0,0E0,0E0,0E0,0E0,0E0,0E0,0E0,0E0,0E0,0E0,0E0,0E0,0E0,0E0,0E0,0E0,0E0,0E0,0E0,0E0,0E0,0E0,0E0,0E0,0E0,0E0,0E0,0E0,0E0,0E0,0E0],"parents":[2147483647,0,0,1,1,2,2,3,3,4,4,5,5,6,6,7,7,8,8,9,9,10,10,11,11,12,12,13,13,14,14,15,15,16,16,17,17,18,18,19,19,20,20,21,21,22,22,23,23,24,24,25,25,26,26,27,27,28,28,29,29,30,30,31,31,32,32,33,33,34,34,35,35,36,36,37,37,38,38,39,39,40,40,41,41,42,42,43,43,44,44,45,45,46,46,47,47,48,48,49,49,50,50,51,51,52,52,53,53,54,54,55,55,56,56,57,57,58,58,59,59,60,60,61,61,62,62],"right_children":[2,4,6,8,10,12,14,16,18,20,22,24,26,28,30,32,34,36,38,40,42,44,46,48,50,52,54,56,58,60,62,64,66,68,70,72,74,76,78,80,82,84,86,88,90,92,94,96,98,100,102,104,106,108,110,112,114,116,118,120,122,124,126,-1,-1,-1,-1,-1,-1,-1,-1,-1,-1,-1,-1,-1,-1,-1,-1,-1,-1,-1,-1,-1,-1,-1,-1,-1,-1,-1,-1,-1,-1,-1,-1,-1,-1,-1,-1,-1,-1,-1,-1,-1,-1,-1,-1,-1,-1,-1,-1,-1,-1,-1,-1,-1,-1,-1,-1,-1,-1,-1,-1,-1,-1,-1,-1],"split_conditions":[1.05458885E-1,-1.0990005E0,1.1759083E0,-2.170011E0,-4.392653E-1,6.044274E-1,2.0148952E0,4.263016E0,-1.5235211E0,-7.419315E-1,1.9179185E-1,9.346192E-2,1.415041E-1,-6.641223E-1,-9.0594345E-1,-2.7367535E0,-2.5007617E0,1.4056209E0,8.6626655E-1,4.801223E-1,2.088761E-1,-7.9498124E-1,-2.4907699E-1,-1.0478853E0,3.8082448E-1,-1.0891194E0,8.356294E-1,-9.907725E-1,3.9674336E-1,-9.907725E-1,2.3300703E0,1.7412998E-1,-2.5007617E0,1.3290975E0,4.2426443E-1,-1.8220809E0,-1.8902118E0,-1.2688688E0,-1.1839107E0,2.8728592E-1,-9.372899E-1,-1.0681586E0,5.2139264E-1,-1.0064261E0,-7.703872E-3,4.32269E-1,5.2139264E-1,4.5520043E-1,4.2248425E-1,8.6626655E-1,3.9455873E-1,1.1271039E0,9.696356E-1,7.236993E-1,1.0542912E0,-1.0891194E0,1.3418423E0,1.4105507E0,1.1697696E0,2.4248095E0,-9.1125065E-1,-5.3463254E-2,3.033372E0,-1.5578148E-1,-1.4015776E-1,-1.1830125E-1,-1.0447323E-1,-7.712447E-2,-6.7371316E-2,-5.047809E-2,-5.586608E-2,-8.92668E-2,-7.563589E-2,-5.22519E-2,-3.6449403E-2,-6.327223E-2,-5.2411623E-2,-2.9475976E-2,-1.2356027E-2,-4.3593615E-2,-3.2241408E-2,-2.4865346E-2,-8.3014965E-3,-4.3745775E-2,-2.7381955E-2,-1.3672133E-2,-7.662633E-4,-3.4694087E-2,-1.6921382E-2,-1.045866E-2,6.8390244E-3,-7.3119323E-3,4.0822173E-3,1.0447543E-2,2.5894135E-2,-1.7186878E-2,9.146991E-6,6.532612E-3,1.806635E-2,1.5377142E-2,4.101965E-2,5.9049662E-2,4.1830845E-2,1.824549E-3,-6.6758655E-2,2.9654521E-2,4.2233717E-2,5.1730435E-2,3.86963E-2,7.485229E-2,5.5645227E-2,1.2668396E-2,2.6433099E-2,3.5267424E-2,4.913379E-2,6.059405E-2,7.0886664E-2,1.05501615E-1,7.4421465E-2,3.1918213E-2,6.524132E-2,8.71126E-2,3.2560986E-2,8.1168704E-2,1.141958E-1,1.2055578E-1,1.5768796E-1],"split_indices":[3,3,3,3,3,3,3,0,3,3,0,0,0,0,0,3,3,0,0,0,0,0,3,0,3,0,3,0,0,0,3,0,3,2,2,3,3,3,3,0,3,0,0,0,3,0,0,3,3,0,3,3,3,3,3,0,3,3,0,3,0,0,3,0,0,0,0,0,0,0,0,0,0,0,0,0,0,0,0,0,0,0,0,0,0,0,0,0,0,0,0,0,0,0,0,0,0,0,0,0,0,0,0,0,0,0,0,0,0,0,0,0,0,0,0,0,0,0,0,0,0,0,0,0,0,0,0],"split_type":[0,0,0,0,0,0,0,0,0,0,0,0,0,0,0,0,0,0,0,0,0,0,0,0,0,0,0,0,0,0,0,0,0,0,0,0,0,0,0,0,0,0,0,0,0,0,0,0,0,0,0,0,0,0,0,0,0,0,0,0,0,0,0,0,0,0,0,0,0,0,0,0,0,0,0,0,0,0,0,0,0,0,0,0,0,0,0,0,0,0,0,0,0,0,0,0,0,0,0,0,0,0,0,0,0,0,0,0,0,0,0,0,0,0,0,0,0,0,0,0,0,0,0,0,0,0,0],"sum_hessian":[1.201613E6,6.9062E5,5.10993E5,1.35906E5,5.54714E5,3.68141E5,1.42852E5,2.5437E4,1.10469E5,2.25069E5,3.29645E5,2.19257E5,1.48884E5,1.01909E5,4.0943E4,2.2692E4,2.745E3,4.6949E4,6.352E4,8.5177E4,1.39892E5,2.69729E5,5.9916E4,1.58102E5,6.1155E4,1.12501E5,3.6383E4,2.0116E4,8.1793E4,6.114E3,3.4829E4,1.0505E4,1.2187E4,1.585E3,1.16E3,4.13E4,5.649E3,5.6979E4,6.541E3,7.4809E4,1.0368E4,1.1048E5,2.9412E4,6.2779E4,2.0695E5,2.4571E4,3.5345E4,1.3278E4,1.44824E5,4.0768E4,2.0387E4,9.734E3,1.02767E5,1.8868E4,1.7515E4,7.347E3,1.2769E4,6.901E4,1.2783E4,4.393E3,1.721E3,1.6092E4,1.8737E4,1.739E3,8.766E3,4.725E3,7.462E3,1.177E3,4.08E2,5.63E2,5.97E2,1.6321E4,2.4979E4,1.574E3,4.075E3,2.8554E4,2.8425E4,4.698E3,1.843E3,6.3168E4,1.1641E4,4.888E3,5.48E3,7.404E3,1.03076E5,2.0046E4,9.366E3,1.2755E4,5.0024E4,1.7547E5,3.148E4,1.5066E4,9.505E3,2.348E4,1.1865E4,8.639E3,4.639E3,1.00293E5,4.4531E4,3.4085E4,6.683E3,2.066E3,1.8321E4,9.595E3,1.39E2,7.5864E4,2.6903E4,5.411E3,1.3457E4,1.2698E4,4.817E3,5.046E3,2.301E3,4.03E3,8.739E3,2.5606E4,4.3404E4,8.345E3,4.438E3,2.641E3,1.752E3,1.449E3,2.72E2,8.857E3,7.235E3,1.5854E4,2.883E3],"tree_param":{"num_deleted":"0","num_feature":"4","num_nodes":"127","size_leaf_vector":"1"}},{"base_weights":[-1.19138625E-4,-2.6199648E-1,3.2518107E-1,-6.74418E-1,-1.5993585E-1,1.921733E-1,6.719608E-1,-1.0627663E0,-5.805473E-1,-2.7841437E-1,-7.272186E-2,1.10385135E-1,3.1638566E-1,5.7037777E-1,9.3857515E-1,-1.1220381E0,-5.8008283E-1,-7.8148824E-1,-4.5099646E-1,-4.3240798E-1,-1.7896178E-1,-1.8532903E-1,1.2565407E-2,-4.4643696E-2,1.7343484E-1,1.6772369E-1,3.7960166E-1,3.0655408E-1,6.344053E-1,4.9543664E-1,1.0157726E0,-1.2797852E0,-9.8560864E-1,-7.350313E-1,-4.6855173E-1,-8.1904954E-1,-4.692699E-1,-4.8740995E-1,-2.0211555E-1,-5.291085E-1,-3.7341452E-1,-2.4059531E-1,-1.2962374E-1,-2.298621E-1,-6.091981E-2,-1.8417859E-1,5.379567E-2,-9.6234754E-2,1.5149862E-2,8.444572E-2,3.0303168E-1,1.15154706E-1,2.356912E-1,3.148115E-1,5.8508986E-1,1.3978013E-1,4.013505E-1,4.4982502E-1,7.0805836E-1,3.1167424E-1,5.9672874E-1,8.684214E-1,1.14233E0,-1.451805E-1,-1.1926057E-1,-1.18497424E-1,-8.619267E-2,-8.103981E-2,-6.742615E-2,-5.6397595E-2,-3.3714894E-2,-9.627938E-2,-7.268559E-2,-5.3313244E-2,-3.1970195E-2,-6.0107745E-2,-4.02019E-2,-2.981976E-2,-1.0718733E-2,-5.56751E-2,-3.086533E-2,-4.1770827E-2,-2.6535356E-2,-2.8042072E-2,-1.4636395E-2,-1.4149482E-2,7.684951E-3,-3.3297528E-2,-1.9967606E-2,-1.3397286E-2,3.0273465E-3,-3.146003E-2,-1.4867248E-2,2.3440346E-4,1.5447532E-2,-1.0993151E-2,1.7537173E-2,-9.916881E-4,1.0664048E-2,-7.8806357E-4,1.4910206E-2,2.5272748E-2,4.1451983E-2,-6.5478073E-3,1.24409115E-2,-7.255424E-3,2.5811387E-2,1.4776625E-2,3.6998622E-2,4.724315E-2,7.278438E-2,-4.0561017E-2,1.5926054E-2,2.7304191E-2,4.533938E-2,4.1325007E-2,6.382568E-2,6.691515E-2,9.244534E-2,1.5758611E-2,5.961245E-2,4.3350093E-2,6.688147E-2,7.392167E-2,1.0264639E-1,9.327359E-2,1.2285874E-1],"categories":[],"categories_nodes":[],"categories_segments":[],"categories_sizes":[],"default_left":[0,0,0,0,0,0,0,0,0,0,0,0,0,0,0,0,0,0,0,0,0,0,0,0,0,0,0,0,0,0,0,0,0,0,0,0,0,0,0,0,0,0,0,0,0,0,0,0,0,0,0,0,0,0,0,0,0,0,0,0,0,0,0,0,0,0,0,0,0,0,0,0,0,0,0,0,0,0,0,0,0,0,0,0,0,0,0,0,0,0,0,0,0,0,0,0,0,0,0,0,0,0,0,0,0,0,0,0,0,0,0,0,0,0,0,0,0,0,0,0,0,0,0,0,0,0,0],"id":3,"left_children":[1,3,5,7,9,11,13,15,17,19,21,23,25,27,29,31,33,35,37,39,41,43,45,47,49,51,53,55,57,59,61,63,65,67,69,71,73,75,77,79,81,83,85,87,89,91,93,95,97,99,101,103,105,107,109,111,113,115,117,119,121,123,125,-1,-1,-1,-1,-1,-1,-1,-1,-1,-1,-1,-1,-1,-1,-1,-1,-1,-1,-1,-1,-1,-1,-1,-1,-1,-1,-1,-1,-1,-1,-1,-1,-1,-1,-1,-1,-1,-1,-1,-1,-1,-1,-1,-1,-1,-1,-1,-1,-1,-1,-1,-1,-1,-1,-1,-1,-1,-1,-1,-1,-1,-1,-1,-1],"loss_changes":[1.0238444E5,2.8026219E4,2.4723422E4,4.8144766E3,5.5152217E3,3.9358438E3,4.0239531E3,7.3493164E2,2.7688086E3,3.4658906E3,2.9526528E3,2.283404E3,1.4454883E3,1.817418E3,1.4019023E3,4.915332E2,4.828595E1,4.8861133E2,5.860625E2,5.0640234E2,4.1811426E2,7.3407275E2,1.4191136E3,2.0834972E2,1.915188E3,1.6395496E2,1.4366758E3,3.32198E2,1.1768242E3,1.1305969E2,6.500586E2,1.5747266E2,3.0185254E2,4.8396606E0,2.0361328E1,4.925254E2,4.2621582E1,5.4741113E2,7.527927E1,2.0486328E2,2.6390332E2,2.2938647E2,1.8720837E2,3.0363428E2,2.3269254E2,1.4031177E2,7.492229E2,1.348999E2,7.17469E1,5.877624E2,3.79063E2,4.3272095E1,1.3835596E2,7.562197E2,4.1570898E2,8.1001465E1,8.9349365E1,1.6995898E2,5.204414E2,9.4755035E1,4.584619E1,3.2871582E2,3.3834375E2,0E0,0E0,0E0,0E0,0E0,0E0,0E0,0E0,0E0,0E0,0E0,0E0,0E0,0E0,0E0,0E0,0E0,0E0,0E0,0E0,0E0,0E0,0E0,0E0,0E0,0E0,0E0,0E0,0E0,0E0,0E0,0E0,0E0,0E0,0E0,0E0,0E0,0E0,0E0,0E0,0E0,0E0,0E0,0E0,0E0,0E0,0E0,0E0,0E0,0E0,0E0,0E0,0E0,0E0,0E0,0E0,0E0,0E0,0E0,0E0,0E0,0E0,0E0,0E0],"parents":[2147483647,0,0,1,1,2,2,3,3,4,4,5,5,6,6,7,7,8,8,9,9,10,10,11,11,12,12,13,13,14,14,15,15,16,16,17,17,18,18,19,19,20,20,21,21,22,22,23,23,24,24,25,25,26,26,27,27,28,28,29,29,30,30,31,31,32,32,33,33,34,34,35,35,36,36,37,37,38,38,39,39,40,40,41,41,42,42,43,43,44,44,45,45,46,46,47,47,48,48,49,49,50,50,51,51,52,52,53,53,54,54,55,55,56,56,57,57,58,58,59,59,60,60,61,61,62,62],"right_children":[2,4,6,8,10,12,14,16,18,20,22,24,26,28,30,32,34,36,38,40,42,44,46,48,50,52,54,56,58,60,62,64,66,68,70,72,74,76,78,80,82,84,86,88,90,92,94,96,98,100,102,104,106,108,110,112,114,116,118,120,122,124,126,-1,-1,-1,-1,-1,-1,-1,-1,-1,-1,-1,-1,-1,-1,-1,-1,-1,-1,-1,-1,-1,-1,-1,-1,-1,-1,-1,-1,-1,-1,-1,-1,-1,-1,-1,-1,-1,-1,-1,-1,-1,-1,-1,-1,-1,-1,-1,-1,-1,-1,-1,-1,-1,-1,-1,-1,-1,-1,-1,-1,-1,-1,-1,-1],"split_conditions":[7.25784E-2,-1.0997654E0,1.1271039E0,-2.170011E0,1.3507059E-2,5.43299E-1,2.0148952E0,4.263016E0,1.3507059E-2,-4.1113234E-1,-4.831552E-1,-3.5281435E-1,-3.5281435E-1,-6.641223E-1,-9.0594345E-1,-2.7367535E0,1.3507059E-2,1.4056209E0,8.6626655E-1,-7.7702296E-1,-1.6601543E-1,2.0266216E-1,-7.606234E-1,3.1249857E-1,-3.983791E-2,8.507405E-1,1.415041E-1,-9.907725E-1,-3.5281435E-1,-1.180885E0,2.3300703E0,1.3507059E-2,1.3507059E-2,-7.1913576E-1,-2.5007617E0,-1.5799488E0,-3.5281435E-1,-1.5235211E0,-1.5799488E0,5.445906E-1,-3.5281435E-1,-3.5281435E-1,4.4488132E-1,-8.749614E-1,-7.7702296E-1,-1.0064261E0,1.3496344E-1,8.6626655E-1,1.1668725E-1,-7.690355E-1,3.8082448E-1,-1.1257149E0,-1.0750669E0,-9.32947E-1,8.356294E-1,1.2060031E0,-3.5281435E-1,3.9674336E-1,3.9674336E-1,2.4248095E0,-3.5281435E-1,-5.3463254E-2,-3.5281435E-1,-1.451805E-1,-1.1926057E-1,-1.18497424E-1,-8.619267E-2,-8.103981E-2,-6.742615E-2,-5.6397595E-2,-3.3714894E-2,-9.627938E-2,-7.268559E-2,-5.3313244E-2,-3.1970195E-2,-6.0107745E-2,-4.02019E-2,-2.981976E-2,-1.0718733E-2,-5.56751E-2,-3.086533E-2,-4.1770827E-2,-2.6535356E-2,-2.8042072E-2,-1.4636395E-2,-1.4149482E-2,7.684951E-3,-3.3297528E-2,-1.9967606E-2,-1.3397286E-2,3.0273465E-3,-3.146003E-2,-1.4867248E-2,2.3440346E-4,1.5447532E-2,-1.0993151E-2,1.7537173E-2,-9.916881E-4,1.0664048E-2,-7.8806357E-4,1.4910206E-2,2.5272748E-2,4.1451983E-2,-6.5478073E-3,1.24409115E-2,-7.255424E-3,2.5811387E-2,1.4776625E-2,3.6998622E-2,4.724315E-2,7.278438E-2,-4.0561017E-2,1.5926054E-2,2.7304191E-2,4.533938E-2,4.1325007E-2,6.382568E-2,6.691515E-2,9.244534E-2,1.5758611E-2,5.961245E-2,4.3350093E-2,6.688147E-2,7.392167E-2,1.0264639E-1,9.327359E-2,1.2285874E-1],"split_indices":[3,3,3,3,1,3,3,0,1,3,3,1,1,0,0,3,1,0,0,3,3,0,0,3,0,3,0,0,1,0,3,1,1,1,3,3,1,3,3,0,1,1,0,3,3,0,0,0,0,0,3,0,0,0,3,3,1,0,0,3,1,0,1,0,0,0,0,0,0,0,0,0,0,0,0,0,0,0,0,0,0,0,0,0,0,0,0,0,0,0,0,0,0,0,0,0,0,0,0,0,0,0,0,0,0,0,0,0,0,0,0,0,0,0,0,0,0,0,0,0,0,0,0,0,0,0,0],"split_type":[0,0,0,0,0,0,0,0,0,0,0,0,0,0,0,0,0,0,0,0,0,0,0,0,0,0,0,0,0,0,0,0,0,0,0,0,0,0,0,0,0,0,0,0,0,0,0,0,0,0,0,0,0,0,0,0,0,0,0,0,0,0,0,0,0,0,0,0,0,0,0,0,0,0,0,0,0,0,0,0,0,0,0,0,0,0,0,0,0,0,0,0,0,0,0,0,0,0,0,0,0,0,0,0,0,0,0,0,0,0,0,0,0,0,0,0,0,0,0,0,0,0,0,0,0,0,0],"sum_hessian":[1.201852E6,6.65834E5,5.36018E5,1.32084E5,5.3375E5,3.87423E5,1.48595E5,2.571E4,1.06374E5,2.2631E5,3.0744E5,2.33606E5,1.53817E5,1.07601E5,4.0994E4,2.2897E4,2.813E3,4.1696E4,6.4678E4,8.8803E4,1.37507E5,1.32498E5,1.74942E5,6.7539E4,1.66067E5,4.5894E4,1.07923E5,2.1015E4,8.6586E4,6.083E3,3.4911E4,1.0615E4,1.2282E4,1.175E3,1.638E3,3.7217E4,4.479E3,5.6422E4,8.256E3,3.3645E4,5.5158E4,6.1134E4,7.6373E4,9.7571E4,3.4927E4,3.0309E4,1.44633E5,3.6256E4,3.1283E4,9.846E4,6.7607E4,2.588E4,2.0014E4,8.2054E4,2.5869E4,7.617E3,1.3398E4,2.4698E4,6.1888E4,2.163E3,3.92E3,1.6134E4,1.8777E4,3.565E3,7.05E3,4.699E3,7.583E3,5.19E2,6.56E2,9.47E2,6.91E2,1.4539E4,2.2678E4,3.137E3,1.342E3,2.4201E4,3.2221E4,4.102E3,4.154E3,2.9895E4,3.75E3,3.912E4,1.6038E4,4.2971E4,1.8163E4,7.2221E4,4.152E3,2.2093E4,7.5478E4,1.9392E4,1.5535E4,6.484E3,2.3825E4,9.5718E4,4.8915E4,3.4516E4,1.74E3,2.4556E4,6.727E3,4.0553E4,5.7907E4,4.6589E4,2.1018E4,1.261E3,2.4619E4,1.357E3,1.8657E4,2.0374E4,6.168E4,1.4461E4,1.1408E4,2.62E2,7.355E3,3.868E3,9.53E3,2.0686E4,4.012E3,5.246E4,9.428E3,1.404E3,7.59E2,1.203E3,2.717E3,8.88E3,7.254E3,5.478E3,1.3299E4],"tree_param":{"num_deleted":"0","num_feature":"4","num_nodes":"127","size_leaf_vector":"1"}},{"base_weights":[1.9489539E-4,-1.4563613E-1,6.208963E-2,-5.7643156E-2,-2.2143431E-1,-4.456835E-2,8.372572E-2,-4.8345964E-2,-1.1944458E-1,-2.3432127E-1,-1.1665181E-1,-1.0350505E-1,-2.38744E-2,1.0354349E-2,1.134005E-1,-1.3899319E-1,-4.022484E-2,-3.682707E-1,-1.1539293E-1,-2.3076527E-1,-7.403019E-1,1.0111385E-3,-1.2791376E-1,-3.899097E-2,-1.12279624E-1,3.597438E-2,-3.4566317E-2,8.810407E-2,-2.1891214E-2,1.6882275E-1,8.138221E-2,-5.20102E-1,-1.3668498E-1,6.243468E-3,-5.320418E-2,-8.355666E-1,-3.3560574E-1,-7.150719E-2,-1.2750158E-1,-1.8158421E-1,-2.4578437E-1,-7.722988E-1,-6.759023E-2,1.1342967E-1,-3.464232E-2,-1.8433167E-1,-1.0171244E-1,-7.514024E-2,-1.2722525E-2,-1.3062578E-1,-6.928781E-2,8.537676E-3,1.2696318E-1,-2.4426313E-2,-8.05122E-2,6.338786E-2,1.23500474E-1,-3.7608985E-2,1.9302706E-1,9.348794E-2,1.8617299E-1,7.01131E-2,2.3884976E-1,-6.1858725E-2,-3.4676455E-2,-1.6312143E-2,-1.05169825E-2,1.0810937E-2,-4.5125317E-4,-1.221476E-2,-3.980564E-3,-4.2529907E-2,-1.2071706E-1,-4.361118E-2,-2.942268E-2,-8.546314E-3,-2.9309876E-3,-1.8096125E-2,-1.0089674E-2,-1.5487537E-2,-2.0165337E-2,-2.559477E-2,-1.618398E-2,-8.3013125E-2,-7.2764024E-2,-4.3548226E-2,1.5856247E-2,4.167677E-2,-3.8845264E-3,-2.2714606E-2,-1.5919374E-2,-1.903784E-2,-8.147289E-3,-1.6315093E-2,-5.5340496E-3,2.2603557E-3,-2.4929175E-3,-1.4535459E-2,-8.505637E-3,-1.9771373E-3,-9.580634E-3,1.1059719E-2,-3.1004434E-3,1.1044802E-2,1.7970135E-2,-3.2887836E-3,7.2982917E-3,-1.8078823E-2,-7.374719E-4,3.437011E-3,1.49164125E-2,7.3347758E-3,1.3727794E-2,-5.9271483E-3,2.6965789E-3,1.5764123E-2,2.9228924E-2,1.0680373E-2,4.272116E-3,2.1163663E-2,1.5676156E-2,-5.721513E-3,7.320436E-3,2.5953937E-2,2.1318635E-2],"categories":[],"categories_nodes":[],"categories_segments":[],"categories_sizes":[],"default_left":[0,0,0,0,0,0,0,0,0,0,0,0,0,0,0,0,0,0,0,0,0,0,0,0,0,0,0,0,0,0,0,0,0,0,0,0,0,0,0,0,0,0,0,0,0,0,0,0,0,0,0,0,0,0,0,0,0,0,0,0,0,0,0,0,0,0,0,0,0,0,0,0,0,0,0,0,0,0,0,0,0,0,0,0,0,0,0,0,0,0,0,0,0,0,0,0,0,0,0,0,0,0,0,0,0,0,0,0,0,0,0,0,0,0,0,0,0,0,0,0,0,0,0,0,0],"id":4,"left_children":[1,3,5,7,9,11,13,15,17,19,21,23,25,27,29,31,33,35,37,39,41,43,45,47,49,51,53,55,57,59,61,63,65,67,69,71,73,75,77,79,81,83,-1,85,87,89,91,93,95,97,99,101,103,105,107,109,111,113,115,117,119,121,123,-1,-1,-1,-1,-1,-1,-1,-1,-1,-1,-1,-1,-1,-1,-1,-1,-1,-1,-1,-1,-1,-1,-1,-1,-1,-1,-1,-1,-1,-1,-1,-1,-1,-1,-1,-1,-1,-1,-1,-1,-1,-1,-1,-1,-1,-1,-1,-1,-1,-1,-1,-1,-1,-1,-1,-1,-1,-1,-1,-1,-1,-1],"loss_changes":[1.08560205E4,2.3902036E3,1.9484963E3,9.528534E1,2.5994434E2,1.7366959E2,1.5283662E3,1.061189E2,2.1820343E1,3.0829297E2,2.794281E1,2.0943542E1,6.744202E1,5.068064E2,8.8691895E2,1.0355759E1,7.9798996E1,5.0162582E0,1.1330872E1,1.2570703E2,1.9424438E0,7.390875E0,2.8429657E1,4.207605E0,2.5683197E1,3.9879433E1,4.1657585E1,5.1837555E1,4.8269147E2,2.3919922E2,5.6214746E2,9.9754906E-1,9.799835E0,3.1652195E1,9.552936E1,2.8406458E0,1.2274628E0,2.716463E0,2.3768066E1,2.1319214E1,1.1122217E2,1.4414978E0,0E0,1.1068674E1,2.672342E0,6.5312347E0,2.3572174E1,3.2409E0,1.1079185E0,1.53107605E1,1.2794292E1,4.9541016E1,3.2036438E0,6.0380573E1,1.1855905E2,8.685469E1,1.6825623E1,1.8626138E2,3.4158386E1,2.3156494E1,1.1137402E2,1.1637036E2,1.1178345E1,0E0,0E0,0E0,0E0,0E0,0E0,0E0,0E0,0E0,0E0,0E0,0E0,0E0,0E0,0E0,0E0,0E0,0E0,0E0,0E0,0E0,0E0,0E0,0E0,0E0,0E0,0E0,0E0,0E0,0E0,0E0,0E0,0E0,0E0,0E0,0E0,0E0,0E0,0E0,0E0,0E0,0E0,0E0,0E0,0E0,0E0,0E0,0E0,0E0,0E0,0E0,0E0,0E0,0E0,0E0,0E0,0E0,0E0,0E0,0E0,0E0,0E0],"parents":[2147483647,0,0,1,1,2,2,3,3,4,4,5,5,6,6,7,7,8,8,9,9,10,10,11,11,12,12,13,13,14,14,15,15,16,16,17,17,18,18,19,19,20,20,21,21,22,22,23,23,24,24,25,25,26,26,27,27,28,28,29,29,30,30,31,31,32,32,33,33,34,34,35,35,36,36,37,37,38,38,39,39,40,40,41,41,43,43,44,44,45,45,46,46,47,47,48,48,49,49,50,50,51,51,52,52,53,53,54,54,55,55,56,56,57,57,58,58,59,59,60,60,61,61,62,62],"right_children":[2,4,6,8,10,12,14,16,18,20,22,24,26,28,30,32,34,36,38,40,42,44,46,48,50,52,54,56,58,60,62,64,66,68,70,72,74,76,78,80,82,84,-1,86,88,90,92,94,96,98,100,102,104,106,108,110,112,114,116,118,120,122,124,-1,-1,-1,-1,-1,-1,-1,-1,-1,-1,-1,-1,-1,-1,-1,-1,-1,-1,-1,-1,-1,-1,-1,-1,-1,-1,-1,-1,-1,-1,-1,-1,-1,-1,-1,-1,-1,-1,-1,-1,-1,-1,-1,-1,-1,-1,-1,-1,-1,-1,-1,-1,-1,-1,-1,-1,-1,-1,-1,-1,-1,-1],"split_conditions":[-3.5281435E-1,-7.1699016E-2,-8.408009E-1,-2.4637724E-1,8.6626655E-1,-1.0750669E0,3.7982845E-1,-1.0891194E0,-2.5507429E0,8.565678E-1,-1.4517785E0,-1.4967195E0,-1.0064261E0,-7.733163E-2,-2.2666983E-3,-2.9170642E0,-9.1660374E-1,-2.9170642E0,-2.0590618E-1,6.357388E-2,-7.1913576E-1,1.3290975E0,-1.0854572E0,7.461499E-1,-1.1257149E0,-1.0186697E0,-8.750229E-1,1.3507059E-2,4.263016E0,-6.534925E-1,4.263016E0,-1.1257149E0,-1.1646134E0,-1.0681586E0,-8.408009E-1,-1.5054923E-1,4.2426443E-1,-2.1968465E-1,-1.6680208E-1,5.450707E-4,4.4488132E-1,4.2426443E-1,-6.759023E-2,-2.1844213E0,-2.5507429E0,4.263016E0,-4.8056865E-1,-4.8056865E-1,-4.8056865E-1,1.1124712E0,-1.1108158E0,-1.0681586E0,1.3290975E0,-8.954638E-1,-8.601238E-1,1.3290975E0,-6.785857E-1,1.3290975E0,1.3290975E0,-6.9339556E-1,-2.2845475E-1,7.941027E-3,1.1124712E0,-6.1858725E-2,-3.4676455E-2,-1.6312143E-2,-1.05169825E-2,1.0810937E-2,-4.5125317E-4,-1.221476E-2,-3.980564E-3,-4.2529907E-2,-1.2071706E-1,-4.361118E-2,-2.942268E-2,-8.546314E-3,-2.9309876E-3,-1.8096125E-2,-1.0089674E-2,-1.5487537E-2,-2.0165337E-2,-2.559477E-2,-1.618398E-2,-8.3013125E-2,-7.2764024E-2,-4.3548226E-2,1.5856247E-2,4.167677E-2,-3.8845264E-3,-2.2714606E-2,-1.5919374E-2,-1.903784E-2,-8.147289E-3,-1.6315093E-2,-5.5340496E-3,2.2603557E-3,-2.4929175E-3,-1.4535459E-2,-8.505637E-3,-1.9771373E-3,-9.580634E-3,1.1059719E-2,-3.1004434E-3,1.1044802E-2,1.7970135E-2,-3.2887836E-3,7.2982917E-3,-1.8078823E-2,-7.374719E-4,3.437011E-3,1.49164125E-2,7.3347758E-3,1.3727794E-2,-5.9271483E-3,2.6965789E-3,1.5764123E-2,2.9228924E-2,1.0680373E-2,4.272116E-3,2.1163663E-2,1.5676156E-2,-5.721513E-3,7.320436E-3,2.5953937E-2,2.1318635E-2],"split_indices":[1,0,0,0,0,0,1,0,1,0,1,0,0,0,0,1,0,1,0,0,1,2,1,1,0,0,0,1,0,0,0,0,0,0,0,0,2,0,0,0,0,2,0,1,1,0,2,2,2,1,0,0,2,0,0,2,0,2,2,0,0,0,1,0,0,0,0,0,0,0,0,0,0,0,0,0,0,0,0,0,0,0,0,0,0,0,0,0,0,0,0,0,0,0,0,0,0,0,0,0,0,0,0,0,0,0,0,0,0,0,0,0,0,0,0,0,0,0,0,0,0,0,0,0,0],"split_type":[0,0,0,0,0,0,0,0,0,0,0,0,0,0,0,0,0,0,0,0,0,0,0,0,0,0,0,0,0,0,0,0,0,0,0,0,0,0,0,0,0,0,0,0,0,0,0,0,0,0,0,0,0,0,0,0,0,0,0,0,0,0,0,0,0,0,0,0,0,0,0,0,0,0,0,0,0,0,0,0,0,0,0,0,0,0,0,0,0,0,0,0,0,0,0,0,0,0,0,0,0,0,0,0,0,0,0,0,0,0,0,0,0,0,0,0,0,0,0,0,0,0,0,0,0],"sum_hessian":[1.202725E6,3.58368E5,8.44357E5,1.65844E5,1.92524E5,1.42396E5,7.01961E5,1.44159E5,2.1685E4,1.71438E5,2.1086E4,3.7004E4,1.05392E5,2.02148E5,4.99813E5,1.1852E4,1.32307E5,3.46E2,2.1339E4,1.70243E5,1.195E3,1.842E3,1.9244E4,4.431E3,3.2573E4,1.5974E4,8.9418E4,5.926E4,1.42888E5,1.83016E5,3.16797E5,7E1,1.1782E4,2.8887E4,1.0342E5,2.1E1,3.25E2,4.616E3,1.6723E4,3.983E4,1.30413E5,7.91E2,4.04E2,4.43E2,1.399E3,6.101E3,1.3143E4,1.864E3,2.567E3,2.2829E4,9.744E3,1.2274E4,3.7E3,7.3253E4,1.6165E4,3.4896E4,2.4364E4,1.33151E5,9.737E3,3.4261E4,1.48755E5,2.95641E5,2.1156E4,4.3E1,2.7E1,6.405E3,5.377E3,2.758E3,2.6129E4,1.6827E4,8.6593E4,1.1E1,1E1,9.2E1,2.33E2,3.468E3,1.148E3,5.555E3,1.1168E4,1.7092E4,2.2738E4,1.16327E5,1.4086E4,3.37E2,4.54E2,3.3E1,4.1E2,1.2E1,1.387E3,2.254E3,3.847E3,2.441E3,1.0702E4,3.41E2,1.523E3,6.59E2,1.908E3,1.7251E4,5.578E3,3.399E3,6.345E3,3.427E3,8.847E3,2.82E3,8.8E2,6.7399E4,5.854E3,6.817E3,9.348E3,2.6076E4,8.82E3,5.252E3,1.9112E4,9.9704E4,3.3447E4,7.18E3,2.557E3,2.7141E4,7.12E3,7.9725E4,6.903E4,7.007E3,2.88634E5,1.1708E4,9.448E3],"tree_param":{"num_deleted":"0","num_feature":"4","num_nodes":"125","size_leaf_vector":"1"}},{"base_weights":[3.062277E-4,-1.92237E-1,3.5558072E-1,-5.2978826E-1,-8.759794E-2,2.4900743E-1,6.7491287E-1,-8.9018446E-1,-4.4364986E-1,-1.8322249E-1,-5.858031E-3,1.6399918E-1,3.4498063E-1,5.949995E-1,9.088469E-1,-1.1084014E0,-7.845309E-1,-6.0090405E-1,-3.4037E-1,-3.3789924E-1,-1.2656157E-1,-1.0162343E-1,7.4488424E-2,1.1120021E-1,3.102309E-1,1.6562758E-1,4.0449467E-1,3.7020037E-1,6.4738864E-1,6.2364507E-1,1.0538198E0,-1.1543263E0,-6.530702E-1,-8.439989E-1,-4.9076757E-1,-7.3993015E-1,-5.231967E-1,-4.420763E-1,-2.695351E-1,-4.09959E-1,-2.7366474E-1,-1.7932864E-1,-2.0905497E-2,-1.1551638E-1,1.1021048E-1,-9.485542E-2,1.1820959E-1,3.367933E-2,1.6695601E-1,1.1149805E-1,3.9194852E-1,2.1375585E-2,2.092452E-1,2.607436E-1,4.6186393E-1,1.4219247E-1,4.3819067E-1,4.9278402E-1,7.09519E-1,5.5748403E-1,1.0724245E0,8.759088E-1,1.1276598E0,-1.2965094E-1,-1.0804249E-1,-7.443269E-2,-5.8110576E-2,-1.0161402E-1,-7.374186E-2,-6.391757E-2,-3.912374E-2,-7.76102E-2,-4.417497E-2,-5.5695947E-2,-3.5583597E-2,-4.771777E-2,-1.8292766E-2,-3.0241428E-2,-7.7263615E-3,-4.3419387E-2,-2.7111584E-2,-2.9381944E-2,-1.5786236E-2,-3.266674E-2,-1.6326247E-2,-1.1709499E-2,4.2238897E-3,-2.7325412E-2,-1.0822096E-2,9.339657E-3,8.575331E-2,-2.301612E-2,-7.383781E-3,7.920269E-3,2.491655E-2,-6.394521E-4,6.712691E-3,7.053406E-3,2.4431562E-2,2.0067005E-3,1.4663468E-2,2.719651E-2,4.3769788E-2,6.9363165E-4,2.6252089E-2,1.5760273E-2,2.2892568E-2,2.3020672E-2,3.7021674E-2,4.0646534E-2,5.8128845E-2,-7.5677345E-3,1.9518323E-2,3.4476664E-2,6.4077236E-2,4.5332342E-2,6.8733156E-2,6.667999E-2,9.33451E-2,3.6378574E-2,6.624826E-2,8.568547E-2,1.453672E-1,8.384826E-2,1.13769725E-1,1.0921452E-1,1.3941453E-1],"categories":[],"categories_nodes":[],"categories_segments":[],"categories_sizes":[],"default_left":[0,0,0,0,0,0,0,0,0,0,0,0,0,0,0,0,0,0,0,0,0,0,0,0,0,0,0,0,0,0,0,0,0,0,0,0,0,0,0,0,0,0,0,0,0,0,0,0,0,0,0,0,0,0,0,0,0,0,0,0,0,0,0,0,0,0,0,0,0,0,0,0,0,0,0,0,0,0,0,0,0,0,0,0,0,0,0,0,0,0,0,0,0,0,0,0,0,0,0,0,0,0,0,0,0,0,0,0,0,0,0,0,0,0,0,0,0,0,0,0,0,0,0,0,0,0,0],"id":5,"left_children":[1,3,5,7,9,11,13,15,17,19,21,23,25,27,29,31,33,35,37,39,41,43,45,47,49,51,53,55,57,59,61,63,65,67,69,71,73,75,77,79,81,83,85,87,89,91,93,95,97,99,101,103,105,107,109,111,113,115,117,119,121,123,125,-1,-1,-1,-1,-1,-1,-1,-1,-1,-1,-1,-1,-1,-1,-1,-1,-1,-1,-1,-1,-1,-1,-1,-1,-1,-1,-1,-1,-1,-1,-1,-1,-1,-1,-1,-1,-1,-1,-1,-1,-1,-1,-1,-1,-1,-1,-1,-1,-1,-1,-1,-1,-1,-1,-1,-1,-1,-1,-1,-1,-1,-1,-1,-1],"loss_changes":[8.21768E4,2.7518053E4,1.4369281E4,5.7228945E3,4.648572E3,2.582746E3,1.9745859E3,8.190488E2,2.4164688E3,2.4020654E3,2.467159E3,1.2961553E3,1.5871387E3,9.2724805E2,1.1115645E3,2.4179395E2,4.1824316E2,6.3684766E2,6.469404E2,3.4001953E2,1.1183848E3,4.3052893E2,1.2909421E3,5.3312964E2,7.232036E2,2.3311139E2,9.206387E2,2.3072083E2,6.131426E2,2.6864648E2,2.332832E2,1.0929492E2,6.561554E0,3.6488574E2,5.938086E1,2.2773242E2,2.1362012E2,3.353086E2,3.3468066E2,1.16407715E2,9.063745E1,3.1664062E2,4.058398E2,1.5794934E2,1.1305887E2,1.01731476E2,7.078727E2,6.916771E1,5.351404E2,4.1689926E1,1.731084E2,2.9953497E1,2.8877075E1,1.0638818E2,5.2771484E2,3.9510506E1,2.1680347E2,1.4026904E2,4.351836E2,1.6053125E2,9.4418335E1,5.033716E1,1.1771582E2,0E0,0E0,0E0,0E0,0E0,0E0,0E0,0E0,0E0,0E0,0E0,0E0,0E0,0E0,0E0,0E0,0E0,0E0,0E0,0E0,0E0,0E0,0E0,0E0,0E0,0E0,0E0,0E0,0E0,0E0,0E0,0E0,0E0,0E0,0E0,0E0,0E0,0E0,0E0,0E0,0E0,0E0,0E0,0E0,0E0,0E0,0E0,0E0,0E0,0E0,0E0,0E0,0E0,0E0,0E0,0E0,0E0,0E0,0E0,0E0,0E0,0E0,0E0,0E0],"parents":[2147483647,0,0,1,1,2,2,3,3,4,4,5,5,6,6,7,7,8,8,9,9,10,10,11,11,12,12,13,13,14,14,15,15,16,16,17,17,18,18,19,19,20,20,21,21,22,22,23,23,24,24,25,25,26,26,27,27,28,28,29,29,30,30,31,31,32,32,33,33,34,34,35,35,36,36,37,37,38,38,39,39,40,40,41,41,42,42,43,43,44,44,45,45,46,46,47,47,48,48,49,49,50,50,51,51,52,52,53,53,54,54,55,55,56,56,57,57,58,58,59,59,60,60,61,61,62,62],"right_children":[2,4,6,8,10,12,14,16,18,20,22,24,26,28,30,32,34,36,38,40,42,44,46,48,50,52,54,56,58,60,62,64,66,68,70,72,74,76,78,80,82,84,86,88,90,92,94,96,98,100,102,104,106,108,110,112,114,116,118,120,122,124,126,-1,-1,-1,-1,-1,-1,-1,-1,-1,-1,-1,-1,-1,-1,-1,-1,-1,-1,-1,-1,-1,-1,-1,-1,-1,-1,-1,-1,-1,-1,-1,-1,-1,-1,-1,-1,-1,-1,-1,-1,-1,-1,-1,-1,-1,-1,-1,-1,-1,-1,-1,-1,-1,-1,-1,-1,-1,-1,-1,-1,-1,-1,-1,-1],"split_conditions":[2.8221503E-1,-9.1136247E-1,1.4105507E0,-1.8902118E0,-2.5349003E-1,7.540198E-1,2.152684E0,-2.7367535E0,1.3507059E-2,-3.5281435E-1,1.3507059E-2,9.335696E-2,-8.2669497E-1,-7.085689E-1,-4.6664336E-1,4.263016E0,1.2851286E0,-1.3899181E0,-1.3534093E0,-5.2357954E-1,1.3496344E-1,4.32269E-1,-7.690355E-1,1.3507059E-2,-3.5281435E-1,-1.0891194E0,-3.5281435E-1,-1.0750669E0,-3.5281435E-1,3.033372E0,-3.5281435E-1,1.3507059E-2,1.3507059E-2,1.3507059E-2,1.3507059E-2,1.4056209E0,4.801223E-1,9.8044455E-1,4.801223E-1,3.6279663E-1,2.954399E-1,-9.907725E-1,-6.268247E-1,-1.0064261E0,2.6096463E-1,-1.1108158E0,1.9179185E-1,4.4219035E-1,-6.223235E-1,3.8082448E-1,3.8082448E-1,1.3278809E0,8.507405E-1,1.2218473E0,1.415041E-1,-1.4967195E0,1.7226667E0,4.1815376E-1,4.1815376E-1,-9.907725E-1,-7.690355E-1,3.033372E0,3.033372E0,-1.2965094E-1,-1.0804249E-1,-7.443269E-2,-5.8110576E-2,-1.0161402E-1,-7.374186E-2,-6.391757E-2,-3.912374E-2,-7.76102E-2,-4.417497E-2,-5.5695947E-2,-3.5583597E-2,-4.771777E-2,-1.8292766E-2,-3.0241428E-2,-7.7263615E-3,-4.3419387E-2,-2.7111584E-2,-2.9381944E-2,-1.5786236E-2,-3.266674E-2,-1.6326247E-2,-1.1709499E-2,4.2238897E-3,-2.7325412E-2,-1.0822096E-2,9.339657E-3,8.575331E-2,-2.301612E-2,-7.383781E-3,7.920269E-3,2.491655E-2,-6.394521E-4,6.712691E-3,7.053406E-3,2.4431562E-2,2.0067005E-3,1.4663468E-2,2.719651E-2,4.3769788E-2,6.9363165E-4,2.6252089E-2,1.5760273E-2,2.2892568E-2,2.3020672E-2,3.7021674E-2,4.0646534E-2,5.8128845E-2,-7.5677345E-3,1.9518323E-2,3.4476664E-2,6.4077236E-2,4.5332342E-2,6.8733156E-2,6.667999E-2,9.33451E-2,3.6378574E-2,6.624826E-2,8.568547E-2,1.453672E-1,8.384826E-2,1.13769725E-1,1.0921452E-1,1.3941453E-1],"split_indices":[3,3,3,3,3,3,3,3,1,1,1,0,0,0,0,0,0,3,3,3,0,0,0,1,1,0,1,0,1,3,1,1,1,1,1,0,0,0,0,0,0,0,3,0,3,0,0,3,0,3,3,3,3,3,0,0,3,0,0,0,0,3,3,0,0,0,0,0,0,0,0,0,0,0,0,0,0,0,0,0,0,0,0,0,0,0,0,0,0,0,0,0,0,0,0,0,0,0,0,0,0,0,0,0,0,0,0,0,0,0,0,0,0,0,0,0,0,0,0,0,0,0,0,0,0,0,0],"split_type":[0,0,0,0,0,0,0,0,0,0,0,0,0,0,0,0,0,0,0,0,0,0,0,0,0,0,0,0,0,0,0,0,0,0,0,0,0,0,0,0,0,0,0,0,0,0,0,0,0,0,0,0,0,0,0,0,0,0,0,0,0,0,0,0,0,0,0,0,0,0,0,0,0,0,0,0,0,0,0,0,0,0,0,0,0,0,0,0,0,0,0,0,0,0,0,0,0,0,0,0,0,0,0,0,0,0,0,0,0,0,0,0,0,0,0,0,0,0,0,0,0,0,0,0,0,0,0],"sum_hessian":[1.201313E6,7.79084E5,4.22229E5,1.8436E5,5.94724E5,3.16577E5,1.05652E5,3.5562E4,1.48798E5,2.74083E5,3.20641E5,1.6788E5,1.48697E5,7.8753E4,2.6899E4,1.1598E4,2.3964E4,5.8984E4,8.9814E4,7.3482E4,2.00601E5,1.46284E5,1.74357E5,1.23346E5,4.4534E4,3.7049E4,1.11648E5,1.4886E4,6.3867E4,9.067E3,1.7832E4,1.0534E4,1.064E3,1.9928E4,4.036E3,2.1145E4,3.7839E4,3.687E4,5.2944E4,3.4629E4,3.8853E4,1.33785E5,6.6816E4,1.37281E5,9.003E3,3.5778E4,1.38579E5,5.1602E4,7.1744E4,1.2977E4,3.1557E4,8.602E3,2.8447E4,3.1849E4,7.9799E4,3.42E3,1.1466E4,1.8311E4,4.5556E4,7.904E3,1.163E3,5.234E3,1.2598E4,3.597E3,6.937E3,4.65E2,5.99E2,7.617E3,1.2311E4,1.618E3,2.418E3,1.8856E4,2.289E3,3.1485E4,6.354E3,3.2471E4,4.399E3,4.5212E4,7.732E3,2.9481E4,5.148E3,3.3092E4,5.761E3,1.3152E4,1.20633E5,2.6479E4,4.0337E4,6.067E3,1.31214E5,8.806E3,1.97E2,4.809E3,3.0969E4,1.06776E5,3.1803E4,2.3476E4,2.8126E4,3.1938E4,3.9806E4,3.603E3,9.374E3,8.713E3,2.2844E4,8.117E3,4.85E2,7.852E3,2.0595E4,2.4905E4,6.944E3,5.4515E4,2.5284E4,6.69E2,2.751E3,7.849E3,3.617E3,1.5226E4,3.085E3,3.8261E4,7.295E3,2.78E3,5.124E3,7.45E2,4.18E2,4.583E3,6.51E2,1.1121E4,1.477E3],"tree_param":{"num_deleted":"0","num_feature":"4","num_nodes":"127","size_leaf_vector":"1"}},{"base_weights":[4.0695173E-4,-1.18982635E-1,5.1069465E-2,-4.6522073E-2,-1.8156323E-1,-3.844462E-2,6.922244E-2,-3.873322E-2,-9.828407E-2,-1.9213857E-1,-9.544137E-2,-1.01429164E-1,-2.3526618E-2,8.28012E-3,9.383466E-2,-1.1691504E-1,-3.1764355E-2,-3.3254158E-1,-9.4617486E-2,-1.8915802E-1,-6.135942E-1,2.7625881E-2,-1.0680582E-1,-5.433307E-2,-1.1953899E-1,-1.6027262E-2,-6.934138E-2,8.44796E-2,-1.3314664E-2,1.377965E-1,6.814231E-2,-1.4313442E-1,-8.595225E-2,8.7606525E-3,-4.307563E-2,-8.487408E-1,-2.9519677E-1,-1.058808E-1,-7.1971245E-2,-2.0507707E-1,-1.56976E-1,-6.8639445E-1,-5.5960375E-1,1.3826868E-1,-6.934657E-3,-1.356276E-1,-6.0651574E-2,-8.479424E-2,-3.3313002E-2,-1.3115396E-1,-8.099327E-2,-1.9618852E-2,8.375334E-2,2.8717946E-3,-1.292023E-1,3.799508E-2,1.0051679E-1,-2.6286094E-2,1.4771767E-1,7.470755E-2,1.522375E-1,5.654885E-2,1.7928718E-1,-5.2431818E-2,-1.4143429E-2,-5.387089E-4,-1.1856156E-2,2.251602E-4,1.0820668E-2,-1.0974948E-2,-3.394336E-3,-5.4467328E-2,-1.1032926E-1,-3.0834828E-2,2.4474705E-2,-1.232488E-2,-8.960618E-3,-8.201591E-3,-3.5951994E-3,-1.4251794E-2,-2.1421334E-2,-1.751467E-2,-1.1908486E-2,-7.160313E-2,-6.176445E-2,-5.848771E-2,-5.11396E-2,-4.0185656E-2,1.6748382E-2,5.8577593E-2,-1.0889714E-3,-1.6846849E-2,-1.1547059E-2,-9.529793E-3,7.320048E-4,-1.8391501E-2,-6.1612423E-3,-2.9899538E-4,-7.4621784E-3,-1.4271195E-2,-9.111757E-3,-8.87016E-3,-3.8739522E-3,-3.6428266E-3,-4.2360937E-4,4.8236907E-3,1.156306E-2,-1.0669806E-2,7.927335E-3,-7.733136E-3,-2.26412E-2,-2.1063243E-3,1.1439358E-2,2.2706001E-4,1.0909407E-2,-4.4148816E-3,2.6906757E-3,1.1243294E-2,2.486187E-2,8.72502E-3,2.6241017E-3,1.2931593E-2,1.8056162E-2,-9.528109E-3,5.9624957E-3,1.2827264E-2,2.004493E-2],"categories":[],"categories_nodes":[],"categories_segments":[],"categories_sizes":[],"default_left":[0,0,0,0,0,0,0,0,0,0,0,0,0,0,0,0,0,0,0,0,0,0,0,0,0,0,0,0,0,0,0,0,0,0,0,0,0,0,0,0,0,0,0,0,0,0,0,0,0,0,0,0,0,0,0,0,0,0,0,0,0,0,0,0,0,0,0,0,0,0,0,0,0,0,0,0,0,0,0,0,0,0,0,0,0,0,0,0,0,0,0,0,0,0,0,0,0,0,0,0,0,0,0,0,0,0,0,0,0,0,0,0,0,0,0,0,0,0,0,0,0,0,0,0,0,0,0],"id":6,"left_children":[1,3,5,7,9,11,13,15,17,19,21,23,25,27,29,31,33,35,37,39,41,43,45,47,49,51,53,55,57,59,61,63,65,67,69,71,73,75,77,79,81,83,85,87,89,91,93,95,97,99,101,103,105,107,109,111,113,115,117,119,121,123,125,-1,-1,-1,-1,-1,-1,-1,-1,-1,-1,-1,-1,-1,-1,-1,-1,-1,-1,-1,-1,-1,-1,-1,-1,-1,-1,-1,-1,-1,-1,-1,-1,-1,-1,-1,-1,-1,-1,-1,-1,-1,-1,-1,-1,-1,-1,-1,-1,-1,-1,-1,-1,-1,-1,-1,-1,-1,-1,-1,-1,-1,-1,-1,-1],"loss_changes":[7.268399E3,1.6234141E3,1.3709136E3,6.6884735E1,1.7493945E2,1.3365152E2,1.0520789E3,7.8567474E1,1.8606369E1,2.1479932E2,2.9388733E1,2.3225708E1,3.951313E1,3.320406E2,5.6432227E2,9.568848E0,6.0695282E1,6.1880913E0,5.4422455E0,8.700293E1,4.3364563E0,6.795984E0,2.5579102E1,4.842293E0,8.797089E0,3.541982E1,6.992944E1,3.321335E1,3.284248E2,1.6789209E2,4.0632874E2,4.06633E0,1.4222885E1,1.8702824E1,6.3025467E1,1.1018867E0,2.2980995E0,4.0216217E0,2.565834E0,6.493359E1,3.869336E1,5.907593E-1,5.476837E-1,6.742174E0,3.1827745E0,7.8183136E0,1.7418045E1,7.0865707E0,5.6102095E0,6.9818115E0,1.4811306E0,2.4667397E1,3.8822803E0,6.139524E1,4.4582153E1,5.1578697E1,2.791623E1,1.3825836E2,4.1701935E1,2.0866257E1,9.733862E1,1.3337506E2,3.2130493E1,0E0,0E0,0E0,0E0,0E0,0E0,0E0,0E0,0E0,0E0,0E0,0E0,0E0,0E0,0E0,0E0,0E0,0E0,0E0,0E0,0E0,0E0,0E0,0E0,0E0,0E0,0E0,0E0,0E0,0E0,0E0,0E0,0E0,0E0,0E0,0E0,0E0,0E0,0E0,0E0,0E0,0E0,0E0,0E0,0E0,0E0,0E0,0E0,0E0,0E0,0E0,0E0,0E0,0E0,0E0,0E0,0E0,0E0,0E0,0E0,0E0,0E0,0E0,0E0],"parents":[2147483647,0,0,1,1,2,2,3,3,4,4,5,5,6,6,7,7,8,8,9,9,10,10,11,11,12,12,13,13,14,14,15,15,16,16,17,17,18,18,19,19,20,20,21,21,22,22,23,23,24,24,25,25,26,26,27,27,28,28,29,29,30,30,31,31,32,32,33,33,34,34,35,35,36,36,37,37,38,38,39,39,40,40,41,41,42,42,43,43,44,44,45,45,46,46,47,47,48,48,49,49,50,50,51,51,52,52,53,53,54,54,55,55,56,56,57,57,58,58,59,59,60,60,61,61,62,62],"right_children":[2,4,6,8,10,12,14,16,18,20,22,24,26,28,30,32,34,36,38,40,42,44,46,48,50,52,54,56,58,60,62,64,66,68,70,72,74,76,78,80,82,84,86,88,90,92,94,96,98,100,102,104,106,108,110,112,114,116,118,120,122,124,126,-1,-1,-1,-1,-1,-1,-1,-1,-1,-1,-1,-1,-1,-1,-1,-1,-1,-1,-1,-1,-1,-1,-1,-1,-1,-1,-1,-1,-1,-1,-1,-1,-1,-1,-1,-1,-1,-1,-1,-1,-1,-1,-1,-1,-1,-1,-1,-1,-1,-1,-1,-1,-1,-1,-1,-1,-1,-1,-1,-1,-1,-1,-1,-1],"split_conditions":[-3.5281435E-1,-7.1699016E-2,-8.408009E-1,-2.4637724E-1,8.6626655E-1,-1.1257149E0,3.7982845E-1,-1.0891194E0,-2.5507429E0,8.565678E-1,-1.4517785E0,-1.3292422E0,-8.750229E-1,-2.4094573E-1,5.450707E-4,-1.1646134E0,-9.1660374E-1,-2.9170642E0,1.3290975E0,-7.1913576E-1,4.2426443E-1,1.3290975E0,-7.1913576E-1,7.461499E-1,1.1124712E0,-8.851589E-1,7.461499E-1,-4.8056865E-1,1.4056209E0,-6.534925E-1,1.1697696E0,-2.9170642E0,-1.1487591E0,-9.220036E-1,-8.601238E-1,-1.5054923E-1,-1.8415111E-1,-1.6680208E-1,-1.09139316E-1,-1.4517785E0,1.3290975E0,-7.1913576E-1,-7.1913576E-1,-2.5507429E0,-2.5507429E0,4.263016E0,1.3290975E0,-4.8056865E-1,-1.4967195E0,1.3290975E0,1.3290975E0,7.461499E-1,7.461499E-1,-8.601238E-1,-8.5038686E-1,1.3507059E-2,-7.9498124E-1,1.3290975E0,1.3290975E0,-6.9339556E-1,1.1124712E0,7.941027E-3,4.263016E0,-5.2431818E-2,-1.4143429E-2,-5.387089E-4,-1.1856156E-2,2.251602E-4,1.0820668E-2,-1.0974948E-2,-3.394336E-3,-5.4467328E-2,-1.1032926E-1,-3.0834828E-2,2.4474705E-2,-1.232488E-2,-8.960618E-3,-8.201591E-3,-3.5951994E-3,-1.4251794E-2,-2.1421334E-2,-1.751467E-2,-1.1908486E-2,-7.160313E-2,-6.176445E-2,-5.848771E-2,-5.11396E-2,-4.0185656E-2,1.6748382E-2,5.8577593E-2,-1.0889714E-3,-1.6846849E-2,-1.1547059E-2,-9.529793E-3,7.320048E-4,-1.8391501E-2,-6.1612423E-3,-2.9899538E-4,-7.4621784E-3,-1.4271195E-2,-9.111757E-3,-8.87016E-3,-3.8739522E-3,-3.6428266E-3,-4.2360937E-4,4.8236907E-3,1.156306E-2,-1.0669806E-2,7.927335E-3,-7.733136E-3,-2.26412E-2,-2.1063243E-3,1.1439358E-2,2.2706001E-4,1.0909407E-2,-4.4148816E-3,2.6906757E-3,1.1243294E-2,2.486187E-2,8.72502E-3,2.6241017E-3,1.2931593E-2,1.8056162E-2,-9.528109E-3,5.9624957E-3,1.2827264E-2,2.004493E-2],"split_indices":[1,0,0,0,0,0,1,0,1,0,1,0,0,0,0,0,0,1,2,1,2,2,1,1,1,0,1,2,0,0,0,1,0,0,0,0,0,0,0,1,2,1,1,1,1,0,2,2,0,2,2,1,1,0,0,1,0,2,2,0,1,0,0,0,0,0,0,0,0,0,0,0,0,0,0,0,0,0,0,0,0,0,0,0,0,0,0,0,0,0,0,0,0,0,0,0,0,0,0,0,0,0,0,0,0,0,0,0,0,0,0,0,0,0,0,0,0,0,0,0,0,0,0,0,0,0,0],"split_type":[0,0,0,0,0,0,0,0,0,0,0,0,0,0,0,0,0,0,0,0,0,0,0,0,0,0,0,0,0,0,0,0,0,0,0,0,0,0,0,0,0,0,0,0,0,0,0,0,0,0,0,0,0,0,0,0,0,0,0,0,0,0,0,0,0,0,0,0,0,0,0,0,0,0,0,0,0,0,0,0,0,0,0,0,0,0,0,0,0,0,0,0,0,0,0,0,0,0,0,0,0,0,0,0,0,0,0,0,0,0,0,0,0,0,0,0,0,0,0,0,0,0,0,0,0,0,0],"sum_hessian":[1.201669E6,3.58005E5,8.43664E5,1.65907E5,1.92098E5,1.42244E5,7.0142E5,1.44209E5,2.1698E4,1.71088E5,2.101E4,2.7238E4,1.15006E5,2.01784E5,4.99636E5,1.1801E4,1.32408E5,3.33E2,2.1365E4,1.69888E5,1.2E3,1.776E3,1.9234E4,7.566E3,1.9672E4,9.883E4,1.6176E4,4.4557E4,1.57227E5,1.84292E5,3.15344E5,6.388E3,5.413E3,2.8893E4,1.03515E5,2.1E1,3.12E2,1.4266E4,7.099E3,1.1366E5,5.6228E4,5.06E2,6.94E2,4.22E2,1.354E3,1.1839E4,7.395E3,3.088E3,4.478E3,1.5115E4,4.557E3,9.5397E4,3.433E3,7.332E3,8.844E3,1.143E4,3.3127E4,1.45507E5,1.172E4,3.4328E4,1.49964E5,2.85559E5,2.9785E4,2.7E1,6.361E3,1.56E3,3.853E3,2.7119E4,1.774E3,1.2469E4,9.1046E4,1.1E1,1E1,3.05E2,7E0,6.898E3,7.368E3,5.55E3,1.549E3,1.4486E4,9.9174E4,3.8001E4,1.8227E4,3.47E2,1.59E2,4.48E2,2.46E2,2.1E1,4.01E2,8E0,1.346E3,4.5E3,7.339E3,4.898E3,2.497E3,5.84E2,2.504E3,2.583E3,1.895E3,1.1727E4,3.388E3,3.853E3,7.04E2,4.5584E4,4.9813E4,1.625E3,1.808E3,3.012E3,4.32E3,5.768E3,3.076E3,6.447E3,4.983E3,2.66E3,3.0467E4,1.08928E5,3.6579E4,8.685E3,3.035E3,2.727E4,7.058E3,8.289E4,6.7074E4,5.67E3,2.79889E5,8.735E3,2.105E4],"tree_param":{"num_deleted":"0","num_feature":"4","num_nodes":"127","size_leaf_vector":"1"}},{"base_weights":[-3.7531264E-4,-2.1178533E-1,2.6235652E-1,-5.2220416E-1,-1.2335271E-1,1.6021146E-1,5.6115115E-1,-8.0081934E-1,-4.3351606E-1,-2.3512535E-1,-7.287564E-2,8.903479E-2,2.603261E-1,4.7609767E-1,7.593258E-1,-9.438396E-1,-6.709675E-1,-5.722072E-1,-3.437621E-1,-3.450213E-1,-1.6282111E-1,-1.4489402E-1,-1.7004566E-2,5.369527E-2,2.3937671E-1,2.131732E-1,4.0754384E-1,3.452466E-1,5.7403976E-1,6.3089484E-1,9.339548E-1,-9.8373806E-1,-5.7231045E-1,-7.2517306E-1,-4.6588558E-1,-6.170909E-1,-4.2760235E-1,-3.699084E-1,-1.4028797E-1,-3.7223867E-1,-2.3259977E-1,-3.244897E-1,-1.2932813E-1,-1.9411732E-1,-9.379366E-2,-1.2951809E-1,4.0699407E-2,-1.6046448E-2,1.0065932E-1,7.269126E-2,3.080635E-1,7.124449E-2,2.406102E-1,3.0490404E-1,5.139499E-1,1.5535812E-1,3.887453E-1,4.295012E-1,6.3400155E-1,3.437941E-1,6.9581485E-1,8.668003E-1,1.0920864E0,-1.11233845E-1,-9.1435105E-2,-6.5162174E-2,-5.110679E-2,-8.6145654E-2,-6.416287E-2,-6.411325E-2,-3.9824147E-2,-7.594331E-2,-5.62858E-2,-4.8386157E-2,-3.2221742E-2,-4.5618426E-2,-3.1055585E-2,-1.7943753E-2,-1.8613361E-3,-4.4566844E-2,-3.378615E-2,-2.7224258E-2,-1.3825088E-2,-4.1141216E-2,-3.0133808E-2,-1.626401E-2,-5.175671E-4,-2.1974407E-2,-1.0386637E-2,-1.0745092E-2,4.973781E-3,-2.581722E-2,-9.908202E-3,-1.8806176E-4,1.1910624E-2,-5.71886E-3,2.9434336E-3,2.2323257E-3,1.54143125E-2,2.8845507E-3,1.8039215E-2,2.5984017E-2,4.276274E-2,-2.4490082E-3,1.2562846E-2,1.4352155E-2,2.8110227E-2,1.6727356E-2,3.6224008E-2,3.6208145E-2,5.7557266E-2,-1.274812E-3,1.9441737E-2,3.5347484E-2,5.115929E-2,3.9015573E-2,5.6618858E-2,5.9853863E-2,7.792494E-2,2.402632E-2,4.9942836E-2,7.915122E-2,3.7427016E-2,7.263022E-2,9.263312E-2,9.4066456E-2,1.16179645E-1],"categories":[],"categories_nodes":[],"categories_segments":[],"categories_sizes":[],"default_left":[0,0,0,0,0,0,0,0,0,0,0,0,0,0,0,0,0,0,0,0,0,0,0,0,0,0,0,0,0,0,0,0,0,0,0,0,0,0,0,0,0,0,0,0,0,0,0,0,0,0,0,0,0,0,0,0,0,0,0,0,0,0,0,0,0,0,0,0,0,0,0,0,0,0,0,0,0,0,0,0,0,0,0,0,0,0,0,0,0,0,0,0,0,0,0,0,0,0,0,0,0,0,0,0,0,0,0,0,0,0,0,0,0,0,0,0,0,0,0,0,0,0,0,0,0,0,0],"id":7,"left_children":[1,3,5,7,9,11,13,15,17,19,21,23,25,27,29,31,33,35,37,39,41,43,45,47,49,51,53,55,57,59,61,63,65,67,69,71,73,75,77,79,81,83,85,87,89,91,93,95,97,99,101,103,105,107,109,111,113,115,117,119,121,123,125,-1,-1,-1,-1,-1,-1,-1,-1,-1,-1,-1,-1,-1,-1,-1,-1,-1,-1,-1,-1,-1,-1,-1,-1,-1,-1,-1,-1,-1,-1,-1,-1,-1,-1,-1,-1,-1,-1,-1,-1,-1,-1,-1,-1,-1,-1,-1,-1,-1,-1,-1,-1,-1,-1,-1,-1,-1,-1,-1,-1,-1,-1,-1,-1],"loss_changes":[6.673929E4,1.8277072E4,1.6351148E4,3.6473516E3,2.9235654E3,2.8450352E3,2.3002227E3,6.613086E2,1.3937266E3,1.280917E3,1.4363776E3,1.2398156E3,1.1515752E3,1.2237637E3,9.1863477E2,2.5082812E2,2.07375E2,2.852744E2,3.6163965E2,1.9566211E2,5.2647876E2,3.922522E2,1.3051554E3,6.188633E2,5.0846606E2,4.8931152E2,4.3938965E2,3.376543E2,4.7310156E2,4.400039E2,1.8347852E2,1.3562305E2,7.666809E0,1.6769385E2,4.6083557E1,2.5872754E2,6.164673E1,3.0834863E2,3.6880478E1,1.2985889E2,4.66109E1,3.345691E1,3.331432E2,1.8369531E2,1.5000146E2,2.668235E2,4.4362204E2,1.4227664E2,4.730609E2,6.1204308E1,1.8123413E2,1.05995476E2,4.1393555E2,1.6161401E2,1.8470752E2,5.00493E1,1.4395264E2,8.592432E1,1.9836816E2,7.010022E1,5.9244434E2,1.0132617E2,5.351172E1,0E0,0E0,0E0,0E0,0E0,0E0,0E0,0E0,0E0,0E0,0E0,0E0,0E0,0E0,0E0,0E0,0E0,0E0,0E0,0E0,0E0,0E0,0E0,0E0,0E0,0E0,0E0,0E0,0E0,0E0,0E0,0E0,0E0,0E0,0E0,0E0,0E0,0E0,0E0,0E0,0E0,0E0,0E0,0E0,0E0,0E0,0E0,0E0,0E0,0E0,0E0,0E0,0E0,0E0,0E0,0E0,0E0,0E0,0E0,0E0,0E0,0E0,0E0,0E0],"parents":[2147483647,0,0,1,1,2,2,3,3,4,4,5,5,6,6,7,7,8,8,9,9,10,10,11,11,12,12,13,13,14,14,15,15,16,16,17,17,18,18,19,19,20,20,21,21,22,22,23,23,24,24,25,25,26,26,27,27,28,28,29,29,30,30,31,31,32,32,33,33,34,34,35,35,36,36,37,37,38,38,39,39,40,40,41,41,42,42,43,43,44,44,45,45,46,46,47,47,48,48,49,49,50,50,51,51,52,52,53,53,54,54,55,55,56,56,57,57,58,58,59,59,60,60,61,61,62,62],"right_children":[2,4,6,8,10,12,14,16,18,20,22,24,26,28,30,32,34,36,38,40,42,44,46,48,50,52,54,56,58,60,62,64,66,68,70,72,74,76,78,80,82,84,86,88,90,92,94,96,98,100,102,104,106,108,110,112,114,116,118,120,122,124,126,-1,-1,-1,-1,-1,-1,-1,-1,-1,-1,-1,-1,-1,-1,-1,-1,-1,-1,-1,-1,-1,-1,-1,-1,-1,-1,-1,-1,-1,-1,-1,-1,-1,-1,-1,-1,-1,-1,-1,-1,-1,-1,-1,-1,-1,-1,-1,-1,-1,-1,-1,-1,-1,-1,-1,-1,-1,-1,-1,-1,-1,-1,-1,-1],"split_conditions":[7.25784E-2,-1.0134475E0,1.2218473E0,-1.8902118E0,-5.2357954E-1,5.43299E-1,2.0148952E0,-2.5007617E0,1.3507059E-2,1.3507059E-2,1.3507059E-2,1.7412998E-1,1.415041E-1,-2.4094573E-1,1.2743245E-2,4.263016E0,9.8044455E-1,4.4488132E-1,8.6626655E-1,3.1430256E-1,-6.785857E-1,-1.6601543E-1,-3.664205E-1,1.3507059E-2,-3.5281435E-1,-1.0186697E0,8.356294E-1,-9.787666E-1,-3.5281435E-1,-9.907725E-1,2.7066767E0,1.3507059E-2,1.3507059E-2,1.3507059E-2,-3.5281435E-1,-1.5799488E0,-1.3033572E0,-1.4747682E0,-1.1839107E0,-8.327228E-1,-3.5281435E-1,-9.1136247E-1,3.1430256E-1,1.9179185E-1,2.8343847E-1,-1.0064261E0,1.5647024E-1,3.1249857E-1,-5.9648305E-1,3.8873124E-1,3.8873124E-1,-1.1257149E0,-3.5281435E-1,-3.5281435E-1,-3.5281435E-1,-7.1913576E-1,1.7036357E0,3.9674336E-1,4.1815376E-1,2.4248095E0,-5.5997476E-2,-3.5281435E-1,1.5647024E-1,-1.11233845E-1,-9.1435105E-2,-6.5162174E-2,-5.110679E-2,-8.6145654E-2,-6.416287E-2,-6.411325E-2,-3.9824147E-2,-7.594331E-2,-5.62858E-2,-4.8386157E-2,-3.2221742E-2,-4.5618426E-2,-3.1055585E-2,-1.7943753E-2,-1.8613361E-3,-4.4566844E-2,-3.378615E-2,-2.7224258E-2,-1.3825088E-2,-4.1141216E-2,-3.0133808E-2,-1.626401E-2,-5.175671E-4,-2.1974407E-2,-1.0386637E-2,-1.0745092E-2,4.973781E-3,-2.581722E-2,-9.908202E-3,-1.8806176E-4,1.1910624E-2,-5.71886E-3,2.9434336E-3,2.2323257E-3,1.54143125E-2,2.8845507E-3,1.8039215E-2,2.5984017E-2,4.276274E-2,-2.4490082E-3,1.2562846E-2,1.4352155E-2,2.8110227E-2,1.6727356E-2,3.6224008E-2,3.6208145E-2,5.7557266E-2,-1.274812E-3,1.9441737E-2,3.5347484E-2,5.115929E-2,3.9015573E-2,5.6618858E-2,5.9853863E-2,7.792494E-2,2.402632E-2,4.9942836E-2,7.915122E-2,3.7427016E-2,7.263022E-2,9.263312E-2,9.4066456E-2,1.16179645E-1],"split_indices":[3,3,3,3,3,3,3,3,1,1,1,0,0,0,0,0,0,0,0,0,0,3,0,1,1,0,3,0,1,0,3,1,1,1,1,3,3,3,3,3,1,3,0,0,0,0,0,3,0,3,3,0,1,1,1,1,3,0,0,3,0,1,0,0,0,0,0,0,0,0,0,0,0,0,0,0,0,0,0,0,0,0,0,0,0,0,0,0,0,0,0,0,0,0,0,0,0,0,0,0,0,0,0,0,0,0,0,0,0,0,0,0,0,0,0,0,0,0,0,0,0,0,0,0,0,0,0],"split_type":[0,0,0,0,0,0,0,0,0,0,0,0,0,0,0,0,0,0,0,0,0,0,0,0,0,0,0,0,0,0,0,0,0,0,0,0,0,0,0,0,0,0,0,0,0,0,0,0,0,0,0,0,0,0,0,0,0,0,0,0,0,0,0,0,0,0,0,0,0,0,0,0,0,0,0,0,0,0,0,0,0,0,0,0,0,0,0,0,0,0,0,0,0,0,0,0,0,0,0,0,0,0,0,0,0,0,0,0,0,0,0,0,0,0,0,0,0,0,0,0,0,0,0,0,0,0,0],"sum_hessian":[1.201552E6,6.65805E5,5.35747E5,1.4762E5,5.18185E5,3.99259E5,1.36488E5,3.5642E4,1.11978E5,1.6121E5,3.56975E5,2.33356E5,1.65903E5,9.5503E4,4.0985E4,1.6958E4,1.8684E4,4.3993E4,6.7985E4,6.3973E4,9.7237E4,1.55951E5,2.01024E5,1.88944E5,4.4412E4,1.25658E5,4.0245E4,4.0885E4,5.4618E4,2.3619E4,1.7366E4,1.5312E4,1.646E3,1.4776E4,3.908E3,3.357E4,1.0423E4,6.0243E4,7.742E3,5.1502E4,1.2471E4,1.6686E4,8.0551E4,7.9433E4,7.6518E4,6.8147E4,1.32877E5,7.6034E4,1.1291E5,1.2961E4,3.1451E4,2.0357E4,1.05301E5,2.0487E4,1.9758E4,7.621E3,3.3264E4,1.6017E4,3.8601E4,4.357E3,1.9262E4,1.2194E4,5.172E3,5.361E3,9.951E3,7.13E2,9.33E2,5.612E3,9.164E3,1.086E3,2.822E3,9.258E3,2.4312E4,6.793E3,3.63E3,2.455E4,3.5693E4,5.857E3,1.885E3,1.6419E4,3.5083E4,8.78E3,3.691E3,3.506E3,1.318E4,6.351E4,1.7041E4,6.1865E4,1.7568E4,6.987E4,6.648E3,1.3036E4,5.5111E4,8.6113E4,4.6764E4,3.9921E4,3.6113E4,4.5812E4,6.7098E4,9.212E3,3.749E3,2.2414E4,9.037E3,7.375E3,1.2982E4,3.0993E4,7.4308E4,6.026E3,1.4461E4,5.705E3,1.4053E4,1.437E3,6.184E3,2.5847E4,7.417E3,1.244E4,3.577E3,3.103E4,7.571E3,2.618E3,1.739E3,1.4843E4,4.419E3,3.633E3,8.561E3,1.635E3,3.537E3],"tree_param":{"num_deleted":"0","num_feature":"4","num_nodes":"127","size_leaf_vector":"1"}},{"base_weights":[1.8250254E-5,-2.0124288E-1,2.233257E-1,-5.181663E-1,-1.3124639E-1,1.2734382E-1,4.819829E-1,-8.0887675E-1,-4.5059225E-1,-2.389624E-1,-7.9626076E-2,6.1583236E-2,2.0983839E-1,4.0971267E-1,6.828227E-1,-8.5160655E-1,-4.6005416E-1,-4.9315244E-1,-3.3338156E-1,-2.7016833E-1,-1.3132374E-1,-1.1023472E-1,1.5151233E-2,2.7938273E-2,1.9376205E-1,1.7017798E-1,3.51208E-1,1.9822222E-1,4.5106426E-1,5.584765E-1,8.269968E-1,-9.343483E-1,-7.522095E-1,-5.281239E-1,-4.0198085E-1,-5.997268E-1,-4.3938905E-1,-3.833316E-1,-2.2728471E-1,-3.1714237E-1,-2.2553456E-1,-1.9463481E-1,-7.999522E-2,-1.5689765E-1,-7.4227415E-2,-2.551926E-2,8.910611E-2,-1.2989354E-1,4.0121183E-2,1.6344464E-1,3.4831622E-1,9.247027E-2,2.0228328E-1,2.752197E-1,4.9337664E-1,8.6365305E-2,2.5824106E-1,4.2429924E-1,6.020848E-1,6.198616E-1,1.3790618E-1,8.0707407E-1,1.0079591E0,-1.0777085E-1,-9.058317E-2,-8.07205E-2,-6.623503E-2,-5.669412E-2,-4.242284E-2,-4.2540587E-2,-3.363109E-2,-6.547462E-2,-5.6741413E-2,-4.794801E-2,-4.0777206E-2,-4.753303E-2,-3.0991409E-2,-3.3779003E-2,-1.9626498E-2,-9.978918E-2,-3.153269E-2,-2.8836852E-2,-2.0423751E-2,-2.5034068E-2,-1.2997627E-2,-1.2444598E-2,-5.309019E-4,-2.5598919E-2,-1.4753491E-2,-2.4606636E-2,-6.618207E-3,-6.571427E-3,3.2659338E-3,6.6185556E-3,1.889339E-2,-2.5050491E-2,-1.1435493E-2,2.0469055E-3,8.790296E-3,1.2195371E-2,2.8039295E-2,5.1315647E-2,3.160575E-2,1.6794503E-3,1.2787446E-2,2.0901522E-2,-1.4514859E-2,2.1745544E-2,2.9807115E-2,5.337422E-2,2.5295496E-2,-1.2946178E-2,1.0653783E-2,2.3527443E-2,4.3841448E-2,3.660969E-2,4.5647595E-2,7.084926E-2,4.262409E-2,3.1815227E-2,7.218101E-2,8.841118E-3,5.0050713E-2,8.3861314E-2,6.5995924E-2,9.10526E-2,1.16790116E-1],"categories":[],"categories_nodes":[],"categories_segments":[],"categories_sizes":[],"default_left":[0,0,0,0,0,0,0,0,0,0,0,0,0,0,0,0,0,0,0,0,0,0,0,0,0,0,0,0,0,0,0,0,0,0,0,0,0,0,0,0,0,0,0,0,0,0,0,0,0,0,0,0,0,0,0,0,0,0,0,0,0,0,0,0,0,0,0,0,0,0,0,0,0,0,0,0,0,0,0,0,0,0,0,0,0,0,0,0,0,0,0,0,0,0,0,0,0,0,0,0,0,0,0,0,0,0,0,0,0,0,0,0,0,0,0,0,0,0,0,0,0,0,0,0,0,0,0],"id":8,"left_children":[1,3,5,7,9,11,13,15,17,19,21,23,25,27,29,31,33,35,37,39,41,43,45,47,49,51,53,55,57,59,61,63,65,67,69,71,73,75,77,79,81,83,85,87,89,91,93,95,97,99,101,103,105,107,109,111,113,115,117,119,121,123,125,-1,-1,-1,-1,-1,-1,-1,-1,-1,-1,-1,-1,-1,-1,-1,-1,-1,-1,-1,-1,-1,-1,-1,-1,-1,-1,-1,-1,-1,-1,-1,-1,-1,-1,-1,-1,-1,-1,-1,-1,-1,-1,-1,-1,-1,-1,-1,-1,-1,-1,-1,-1,-1,-1,-1,-1,-1,-1,-1,-1,-1,-1,-1,-1],"loss_changes":[5.3997797E4,1.4018348E4,1.4139594E4,2.2453926E3,2.8780654E3,2.2534756E3,2.237082E3,3.209629E2,4.6257422E2,5.632295E2,1.01512427E3,1.0279268E3,1.0330166E3,9.9126953E2,7.307656E2,1.5725195E2,9.097107E0,3.8964453E2,1.3088037E2,2.7249023E2,1.2246753E2,4.4440308E2,2.5693298E2,3.542846E2,2.1969238E2,3.589624E2,4.3594434E2,1.24453E2,3.8300195E2,5.653789E2,6.727539E1,4.185547E1,4.260791E1,4.11911E0,1.8182678E0,4.0189453E1,5.71416E1,1.13332275E2,2.7058228E1,7.79624E1,8.914966E1,6.074884E1,6.9108826E1,1.06843994E2,2.0638861E2,1.2888565E2,6.933775E1,2.471553E1,1.6061176E2,1.9021936E2,4.0729675E1,1.1271341E2,2.3817822E2,3.466162E1,1.3630396E2,2.820884E1,4.9825623E1,1.5067578E2,2.6674365E2,5.876631E2,5.004563E1,7.84082E1,2.8062378E1,0E0,0E0,0E0,0E0,0E0,0E0,0E0,0E0,0E0,0E0,0E0,0E0,0E0,0E0,0E0,0E0,0E0,0E0,0E0,0E0,0E0,0E0,0E0,0E0,0E0,0E0,0E0,0E0,0E0,0E0,0E0,0E0,0E0,0E0,0E0,0E0,0E0,0E0,0E0,0E0,0E0,0E0,0E0,0E0,0E0,0E0,0E0,0E0,0E0,0E0,0E0,0E0,0E0,0E0,0E0,0E0,0E0,0E0,0E0,0E0,0E0,0E0,0E0,0E0],"parents":[2147483647,0,0,1,1,2,2,3,3,4,4,5,5,6,6,7,7,8,8,9,9,10,10,11,11,12,12,13,13,14,14,15,15,16,16,17,17,18,18,19,19,20,20,21,21,22,22,23,23,24,24,25,25,26,26,27,27,28,28,29,29,30,30,31,31,32,32,33,33,34,34,35,35,36,36,37,37,38,38,39,39,40,40,41,41,42,42,43,43,44,44,45,45,46,46,47,47,48,48,49,49,50,50,51,51,52,52,53,53,54,54,55,55,56,56,57,57,58,58,59,59,60,60,61,61,62,62],"right_children":[2,4,6,8,10,12,14,16,18,20,22,24,26,28,30,32,34,36,38,40,42,44,46,48,50,52,54,56,58,60,62,64,66,68,70,72,74,76,78,80,82,84,86,88,90,92,94,96,98,100,102,104,106,108,110,112,114,116,118,120,122,124,126,-1,-1,-1,-1,-1,-1,-1,-1,-1,-1,-1,-1,-1,-1,-1,-1,-1,-1,-1,-1,-1,-1,-1,-1,-1,-1,-1,-1,-1,-1,-1,-1,-1,-1,-1,-1,-1,-1,-1,-1,-1,-1,-1,-1,-1,-1,-1,-1,-1,-1,-1,-1,-1,-1,-1,-1,-1,-1,-1,-1,-1,-1,-1,-1],"split_conditions":[-3.3694408E-3,-1.1839107E0,1.0831764E0,-2.256151E0,-5.908123E-1,4.5520043E-1,2.0148952E0,4.263016E0,4.4488132E-1,3.025155E-1,1.415041E-1,1.7412998E-1,1.415041E-1,-7.818723E-1,-4.7634106E-2,-2.7367535E0,-2.7367535E0,-1.7415223E0,4.263016E0,-8.327228E-1,-9.280093E-1,-2.7863944E-1,-2.3442015E-1,-1.0064261E0,3.8873124E-1,-8.954638E-1,8.356294E-1,-1.0478853E0,3.9674336E-1,-5.5997476E-2,3.033372E0,1.7412998E-1,4.618859E-1,1.3290975E0,1.3290975E0,-1.8902118E0,-1.4747682E0,-1.6711601E0,-1.8902118E0,-1.2636806E0,-4.8536065E-1,5.445906E-1,6.634422E-1,-1.0293838E0,-1.0064261E0,3.207309E-1,8.6626655E-1,5.6299925E-2,-3.983791E-2,7.189075E-1,3.9455873E-1,-1.0891194E0,1.381936E-1,2.0547055E-1,1.2851286E0,1.2060031E0,1.7036357E0,-2.4094573E-1,1.1697696E0,-9.554325E-1,2.0455353E0,1.1697696E0,3.5473317E-1,-1.0777085E-1,-9.058317E-2,-8.07205E-2,-6.623503E-2,-5.669412E-2,-4.242284E-2,-4.2540587E-2,-3.363109E-2,-6.547462E-2,-5.6741413E-2,-4.794801E-2,-4.0777206E-2,-4.753303E-2,-3.0991409E-2,-3.3779003E-2,-1.9626498E-2,-9.978918E-2,-3.153269E-2,-2.8836852E-2,-2.0423751E-2,-2.5034068E-2,-1.2997627E-2,-1.2444598E-2,-5.309019E-4,-2.5598919E-2,-1.4753491E-2,-2.4606636E-2,-6.618207E-3,-6.571427E-3,3.2659338E-3,6.6185556E-3,1.889339E-2,-2.5050491E-2,-1.1435493E-2,2.0469055E-3,8.790296E-3,1.2195371E-2,2.8039295E-2,5.1315647E-2,3.160575E-2,1.6794503E-3,1.2787446E-2,2.0901522E-2,-1.4514859E-2,2.1745544E-2,2.9807115E-2,5.337422E-2,2.5295496E-2,-1.2946178E-2,1.0653783E-2,2.3527443E-2,4.3841448E-2,3.660969E-2,4.5647595E-2,7.084926E-2,4.262409E-2,3.1815227E-2,7.218101E-2,8.841118E-3,5.0050713E-2,8.3861314E-2,6.5995924E-2,9.10526E-2,1.16790116E-1],"split_indices":[3,3,3,3,3,3,3,0,0,0,0,0,0,0,0,3,3,3,0,3,3,3,3,0,3,0,3,0,0,0,3,0,0,2,2,3,3,3,3,0,0,0,0,0,0,0,0,3,0,0,3,0,0,0,0,3,3,0,0,0,3,0,0,0,0,0,0,0,0,0,0,0,0,0,0,0,0,0,0,0,0,0,0,0,0,0,0,0,0,0,0,0,0,0,0,0,0,0,0,0,0,0,0,0,0,0,0,0,0,0,0,0,0,0,0,0,0,0,0,0,0,0,0,0,0,0,0],"split_type":[0,0,0,0,0,0,0,0,0,0,0,0,0,0,0,0,0,0,0,0,0,0,0,0,0,0,0,0,0,0,0,0,0,0,0,0,0,0,0,0,0,0,0,0,0,0,0,0,0,0,0,0,0,0,0,0,0,0,0,0,0,0,0,0,0,0,0,0,0,0,0,0,0,0,0,0,0,0,0,0,0,0,0,0,0,0,0,0,0,0,0,0,0,0,0,0,0,0,0,0,0,0,0,0,0,0,0,0,0,0,0,0,0,0,0,0,0,0,0,0,0,0,0,0,0,0,0],"sum_hessian":[1.201468E6,6.31928E5,5.6954E5,1.14319E5,5.17609E5,4.15397E5,1.54143E5,2.1559E4,9.276E4,1.67689E5,3.4992E5,2.31143E5,1.84254E5,1.13356E5,4.0787E4,1.9205E4,2.354E3,6.8048E4,2.4712E4,1.29999E5,3.769E4,2.64499E5,8.5421E4,1.84246E5,4.6897E4,1.43889E5,4.0365E4,1.854E4,9.4816E4,2.1902E4,1.8885E4,1.0476E4,8.729E3,1.08E3,1.274E3,2.2814E4,4.5234E4,1.68E4,7.912E3,6.3336E4,6.6663E4,1.6874E4,2.0816E4,1.15202E5,1.49297E5,5.5113E4,3.0308E4,1.3202E4,1.71044E5,3.9208E4,7.689E3,4.2069E4,1.0182E5,2.6307E4,1.4058E4,6.475E3,1.2065E4,8.0545E4,1.4271E4,1.9112E4,2.79E3,1.7017E4,1.868E3,1.732E3,8.744E3,5.41E3,3.319E3,7.83E2,2.97E2,9.35E2,3.39E2,8.434E3,1.438E4,1.9938E4,2.5296E4,7.454E3,9.346E3,1.732E3,6.18E3,1.67E2,6.3169E4,1.6872E4,4.9791E4,9.063E3,7.811E3,1.3049E4,7.767E3,9.943E3,1.05259E5,6.676E3,1.42621E5,3.2594E4,2.2519E4,2.465E4,5.658E3,1.505E3,1.1697E4,1.21198E5,4.9846E4,2.8942E4,1.0266E4,1.256E3,6.433E3,1.3409E4,2.866E4,9.9885E4,1.935E3,7.46E3,1.8847E4,1.2036E4,2.022E3,5.53E2,5.922E3,1.0703E4,1.362E3,2.868E4,5.1865E4,8.889E3,5.382E3,4.828E3,1.4284E4,2.456E3,3.34E2,1.4009E4,3.008E3,1.165E3,7.03E2],"tree_param":{"num_deleted":"0","num_feature":"4","num_nodes":"127","size_leaf_vector":"1"}},{"base_weights":[1.5081058E-5,-9.87279E-2,4.1897688E-2,-4.005709E-2,-1.4934666E-1,-3.0213485E-2,5.649023E-2,-2.9957239E-2,-7.931253E-2,-1.5573025E-1,-6.2554345E-2,-8.1234865E-2,-1.8195348E-2,1.8557465E-2,8.450773E-2,-9.587805E-2,-2.347356E-2,-3.2813835E-1,-7.677657E-2,-1.7052121E-1,-1.2504467E-1,5.619374E-2,-7.438922E-2,-3.1030022E-2,-9.115899E-2,-1.4703452E-2,-8.520539E-2,6.306302E-2,-3.3738726E-4,1.1669496E-1,6.6079654E-2,-1.196312E-1,-6.788483E-2,2.4622055E-2,-3.0612396E-2,-3.024559E-1,-1.0734509E0,-1.6258436E-1,-7.011485E-2,-1.3730346E-1,-1.800427E-1,-1.6128626E-1,-9.9934906E-2,-3.4741372E-1,6.976164E-2,-9.8373435E-2,-3.592845E-2,-6.155279E-2,-7.843566E-3,-1.09350465E-1,-7.529264E-2,-1.8225648E-2,9.00756E-2,4.7860116E-2,-2.004108E-1,2.1605024E-2,7.533981E-2,-1.1470238E-2,1.278378E-1,5.9954908E-2,1.2943298E-1,5.8382317E-2,1.2962994E-1,-4.7416978E-2,-1.17939515E-2,1.0257636E-3,-1.0012967E-2,-6.840172E-5,7.96444E-3,-2.9824385E-2,-2.9628098E-3,3.347392E-2,-3.0928362E-2,-1.2725247E-1,-1.1841234E-2,-1.48123475E-2,-1.8545767E-2,2.6659043E-6,-7.617532E-3,-2.2937253E-2,-1.3500886E-2,-1.9190175E-2,-1.5623942E-2,-1.2396425E-2,-1.9628227E-2,-1.0916217E-2,-4.3165847E-3,6.6644244E-2,-3.9163213E-2,5.447886E-2,5.1363152E-3,-1.3644352E-2,-8.748861E-3,-7.414532E-3,-1.3798851E-3,-1.6585868E-2,-3.8824491E-3,-1.1962303E-4,-1.4940967E-2,-1.4298103E-2,-8.587168E-3,-9.557843E-3,-4.4875643E-3,-1.2681776E-3,-1.2366282E-2,3.6692817E-3,1.0786944E-2,1.050534E-2,-2.1212788E-3,-1.8545745E-2,-2.0537516E-2,-3.606505E-3,6.3678124E-3,1.2720058E-3,7.926123E-3,-4.331858E-3,1.7459333E-3,7.480784E-3,1.6544476E-2,3.3256572E-3,8.657362E-3,1.0929391E-2,1.4564805E-2,6.176958E-3,-3.5308354E-2,1.0282757E-2,1.4620493E-2],"categories":[],"categories_nodes":[],"categories_segments":[],"categories_sizes":[],"default_left":[0,0,0,0,0,0,0,0,0,0,0,0,0,0,0,0,0,0,0,0,0,0,0,0,0,0,0,0,0,0,0,0,0,0,0,0,0,0,0,0,0,0,0,0,0,0,0,0,0,0,0,0,0,0,0,0,0,0,0,0,0,0,0,0,0,0,0,0,0,0,0,0,0,0,0,0,0,0,0,0,0,0,0,0,0,0,0,0,0,0,0,0,0,0,0,0,0,0,0,0,0,0,0,0,0,0,0,0,0,0,0,0,0,0,0,0,0,0,0,0,0,0,0,0,0,0,0],"id":9,"left_children":[1,3,5,7,9,11,13,15,17,19,21,23,25,27,29,31,33,35,37,39,41,43,45,47,49,51,53,55,57,59,61,63,65,67,69,71,73,75,77,79,81,83,85,87,89,91,93,95,97,99,101,103,105,107,109,111,113,115,117,119,121,123,125,-1,-1,-1,-1,-1,-1,-1,-1,-1,-1,-1,-1,-1,-1,-1,-1,-1,-1,-1,-1,-1,-1,-1,-1,-1,-1,-1,-1,-1,-1,-1,-1,-1,-1,-1,-1,-1,-1,-1,-1,-1,-1,-1,-1,-1,-1,-1,-1,-1,-1,-1,-1,-1,-1,-1,-1,-1,-1,-1,-1,-1,-1,-1,-1],"loss_changes":[4.970862E3,1.0631448E3,8.881127E2,6.5734985E1,1.0646582E2,8.709854E1,7.460051E2,5.6363228E1,2.1384415E1,8.1226074E1,1.8510082E1,1.3489502E1,2.6900112E1,2.5076746E2,2.3946704E2,7.844002E0,4.1226044E1,6.22171E0,1.918843E1,3.817798E1,5.297058E1,6.562709E0,1.1042816E1,3.16371E0,6.517761E0,4.0329464E1,8.7297844E1,4.523166E1,2.9871027E2,1.0623096E2,1.2558386E2,3.7748108E0,1.3665308E1,2.16087E1,2.7532982E1,1.5479279E0,1.9406738E0,7.726517E-1,1.3250061E1,5.654724E0,2.6468994E1,3.1099243E1,1.8013733E1,2.0094118E0,1.0075205E1,3.0441666E0,3.8901534E0,4.569003E0,2.3919384E0,8.303047E0,7.4494705E0,6.1795525E1,3.371933E0,1.0443415E1,1.8848419E-1,4.927194E1,1.6836182E1,1.7745908E2,3.335019E1,1.9150536E1,3.9184326E1,3.1920135E2,1.2307098E1,0E0,0E0,0E0,0E0,0E0,0E0,0E0,0E0,0E0,0E0,0E0,0E0,0E0,0E0,0E0,0E0,0E0,0E0,0E0,0E0,0E0,0E0,0E0,0E0,0E0,0E0,0E0,0E0,0E0,0E0,0E0,0E0,0E0,0E0,0E0,0E0,0E0,0E0,0E0,0E0,0E0,0E0,0E0,0E0,0E0,0E0,0E0,0E0,0E0,0E0,0E0,0E0,0E0,0E0,0E0,0E0,0E0,0E0,0E0,0E0,0E0,0E0,0E0,0E0],"parents":[2147483647,0,0,1,1,2,2,3,3,4,4,5,5,6,6,7,7,8,8,9,9,10,10,11,11,12,12,13,13,14,14,15,15,16,16,17,17,18,18,19,19,20,20,21,21,22,22,23,23,24,24,25,25,26,26,27,27,28,28,29,29,30,30,31,31,32,32,33,33,34,34,35,35,36,36,37,37,38,38,39,39,40,40,41,41,42,42,43,43,44,44,45,45,46,46,47,47,48,48,49,49,50,50,51,51,52,52,53,53,54,54,55,55,56,56,57,57,58,58,59,59,60,60,61,61,62,62],"right_children":[2,4,6,8,10,12,14,16,18,20,22,24,26,28,30,32,34,36,38,40,42,44,46,48,50,52,54,56,58,60,62,64,66,68,70,72,74,76,78,80,82,84,86,88,90,92,94,96,98,100,102,104,106,108,110,112,114,116,118,120,122,124,126,-1,-1,-1,-1,-1,-1,-1,-1,-1,-1,-1,-1,-1,-1,-1,-1,-1,-1,-1,-1,-1,-1,-1,-1,-1,-1,-1,-1,-1,-1,-1,-1,-1,-1,-1,-1,-1,-1,-1,-1,-1,-1,-1,-1,-1,-1,-1,-1,-1,-1,-1,-1,-1,-1,-1,-1,-1,-1,-1,-1,-1,-1,-1,-1],"split_conditions":[-3.5281435E-1,-7.1699016E-2,-8.408009E-1,-3.237634E-1,4.263016E0,-1.1257149E0,7.461499E-1,-1.0891194E0,-2.5507429E0,1.3290975E0,-1.4517785E0,-1.4967195E0,-8.5038686E-1,-7.733163E-2,-2.2666983E-3,-1.1646134E0,-9.7285E-1,-1.5054923E-1,-3.1455806E-1,6.357388E-2,-1.0854572E0,-2.1844213E0,-7.1913576E-1,7.461499E-1,7.461499E-1,-8.601238E-1,7.461499E-1,-4.8056865E-1,1.4056209E0,-6.534925E-1,8.6626655E-1,-2.9170642E0,-1.1487591E0,-9.8474044E-1,-2.9170642E0,-3.0189654E-1,-2.9170642E0,-7.1913576E-1,-3.0189654E-1,-1.8181E0,-7.1913576E-1,-1.4517785E0,4.32269E-1,-4.8056865E-1,-1.8181E0,-4.8056865E-1,4.2426443E-1,-4.8056865E-1,1.4787927E0,-1.218265E0,4.2426443E-1,-8.700165E-1,-4.8056865E-1,4.2426443E-1,-4.8056865E-1,1.3507059E-2,-7.9498124E-1,4.2426443E-1,1.3507059E-2,1.1124712E0,1.1124712E0,8.565678E-1,4.263016E0,-4.7416978E-2,-1.17939515E-2,1.0257636E-3,-1.0012967E-2,-6.840172E-5,7.96444E-3,-2.9824385E-2,-2.9628098E-3,3.347392E-2,-3.0928362E-2,-1.2725247E-1,-1.1841234E-2,-1.48123475E-2,-1.8545767E-2,2.6659043E-6,-7.617532E-3,-2.2937253E-2,-1.3500886E-2,-1.9190175E-2,-1.5623942E-2,-1.2396425E-2,-1.9628227E-2,-1.0916217E-2,-4.3165847E-3,6.6644244E-2,-3.9163213E-2,5.447886E-2,5.1363152E-3,-1.3644352E-2,-8.748861E-3,-7.414532E-3,-1.3798851E-3,-1.6585868E-2,-3.8824491E-3,-1.1962303E-4,-1.4940967E-2,-1.4298103E-2,-8.587168E-3,-9.557843E-3,-4.4875643E-3,-1.2681776E-3,-1.2366282E-2,3.6692817E-3,1.0786944E-2,1.050534E-2,-2.1212788E-3,-1.8545745E-2,-2.0537516E-2,-3.606505E-3,6.3678124E-3,1.2720058E-3,7.926123E-3,-4.331858E-3,1.7459333E-3,7.480784E-3,1.6544476E-2,3.3256572E-3,8.657362E-3,1.0929391E-2,1.4564805E-2,6.176958E-3,-3.5308354E-2,1.0282757E-2,1.4620493E-2],"split_indices":[1,0,0,0,0,0,1,0,1,2,1,0,0,0,0,0,0,0,0,0,1,1,1,1,1,0,1,2,0,0,0,1,0,0,1,0,1,1,0,1,1,1,0,2,1,2,2,2,1,0,2,0,2,2,2,1,0,2,1,1,1,0,0,0,0,0,0,0,0,0,0,0,0,0,0,0,0,0,0,0,0,0,0,0,0,0,0,0,0,0,0,0,0,0,0,0,0,0,0,0,0,0,0,0,0,0,0,0,0,0,0,0,0,0,0,0,0,0,0,0,0,0,0,0,0,0,0],"split_type":[0,0,0,0,0,0,0,0,0,0,0,0,0,0,0,0,0,0,0,0,0,0,0,0,0,0,0,0,0,0,0,0,0,0,0,0,0,0,0,0,0,0,0,0,0,0,0,0,0,0,0,0,0,0,0,0,0,0,0,0,0,0,0,0,0,0,0,0,0,0,0,0,0,0,0,0,0,0,0,0,0,0,0,0,0,0,0,0,0,0,0,0,0,0,0,0,0,0,0,0,0,0,0,0,0,0,0,0,0,0,0,0,0,0,0,0,0,0,0,0,0,0,0,0,0,0,0],"sum_hessian":[1.201963E6,3.57981E5,8.43982E5,1.65804E5,1.92177E5,1.42045E5,7.01937E5,1.31876E5,3.3928E4,1.7901E5,1.3167E4,2.7079E4,1.14966E5,2.98203E5,4.03734E5,1.1808E4,1.20068E5,3.41E2,3.3587E4,1.20785E5,5.8225E4,1.193E3,1.1974E4,4.47E3,2.2609E4,1.09273E5,5.693E3,8.8871E4,2.09332E5,1.4699E5,2.56744E5,6.386E3,5.422E3,1.5518E4,1.0455E5,3.31E2,1E1,2.418E3,3.1169E4,2.6912E4,9.3873E4,2.3828E4,3.4397E4,3.8E1,1.155E3,7.374E3,4.6E3,1.929E3,2.541E3,1.053E4,1.2079E4,1.0572E5,3.553E3,2.642E3,3.051E3,2.0305E4,6.8566E4,1.92604E5,1.6728E4,2.695E4,1.2004E5,2.29008E5,2.7736E4,2.9E1,6.357E3,1.584E3,3.838E3,1.063E4,4.888E3,3.82E2,1.04168E5,3E0,3.28E2,8E0,2E0,1.486E3,9.32E2,2.479E3,2.869E4,6.52E2,2.626E4,6.2652E4,3.1221E4,1.1533E4,1.2295E4,2.9587E4,4.81E3,1E0,3.7E1,4.2E1,1.113E3,1.637E3,5.737E3,1.686E3,2.914E3,3.44E2,1.585E3,2.428E3,1.13E2,4.327E3,6.203E3,7.245E3,4.834E3,1.0044E5,5.28E3,8.89E2,2.664E3,1.445E3,1.197E3,7.7E2,2.281E3,8.565E3,1.174E4,4.041E3,6.4525E4,9.1677E4,1.00927E5,6.942E3,9.786E3,1.3456E4,1.3494E4,5.3545E4,6.6495E4,2.27139E5,1.869E3,1.0601E4,1.7135E4],"tree_param":{"num_deleted":"0","num_feature":"4","num_nodes":"127","size_leaf_vector":"1"}},{"base_weights":[-3.961457E-5,-1.3699123E-1,2.6629752E-1,-3.7182468E-1,-5.714177E-2,1.8648614E-1,4.941188E-1,-5.9700316E-1,-2.982895E-1,-1.15369245E-1,1.0332867E-2,1.4937297E-1,3.155996E-1,4.4136956E-1,6.896748E-1,-7.6350546E-1,-5.101607E-1,-3.7064698E-1,-2.5044394E-1,-1.3864942E-1,-2.3779545E-2,-4.875928E-2,6.871222E-2,9.6145414E-2,2.1803457E-1,2.4923955E-1,4.228719E-1,3.1112126E-1,4.9642277E-1,4.2326128E-1,7.808345E-1,-7.973747E-1,-4.5011652E-1,-5.41938E-1,-3.0209202E-1,-4.0803623E-1,-2.6656932E-1,-2.9090667E-1,-1.5828156E-1,-2.016174E-1,-1.1052719E-1,-1.01550184E-1,3.8633903E-3,-1.5249185E-1,-3.947828E-2,4.8916705E-2,2.1307994E-1,4.4572968E-2,1.3907656E-1,1.11577995E-1,2.5272027E-1,1.5872963E-1,2.6414052E-1,4.6060777E-1,2.5767747E-1,1.3229142E-1,3.4835505E-1,4.6575585E-1,6.3003296E-1,2.9934633E-1,5.985161E-1,7.0853055E-1,9.049256E-1,-8.413798E-2,-6.9961846E-2,-4.8963655E-2,-3.38138E-2,-6.15712E-2,-5.1622976E-2,-3.4231674E-2,-2.1156339E-2,-4.3416746E-2,-3.6676906E-2,-3.0195264E-2,-1.8231181E-2,-5.516965E-2,-2.8733766E-2,-1.9608667E-2,-1.0196154E-2,-2.5329808E-2,-1.8400267E-2,-2.148757E-2,-1.0160037E-2,-1.2887436E-2,-2.9292502E-3,-2.879027E-3,5.1170364E-3,-2.2668945E-2,-9.966798E-3,-7.3606395E-3,-8.991174E-4,2.9625341E-2,4.209145E-3,2.4831423E-3,2.4376862E-2,-2.101526E-3,6.950705E-3,1.0483141E-2,1.7386427E-2,2.5586626E-3,1.424333E-2,2.6237695E-2,-1.609023E-2,5.600726E-3,1.830565E-2,2.9343313E-2,2.1573193E-2,6.1685074E-2,4.2781405E-2,1.3682379E-2,2.7105529E-2,-6.6394988E-3,1.739612E-2,3.0699456E-2,4.793025E-2,4.5056313E-2,8.247122E-2,7.135686E-2,4.7771316E-2,2.2906633E-2,4.0425718E-2,4.7360603E-2,7.06543E-2,6.61992E-2,1.0411047E-1,1.2856285E-1,8.478963E-2],"categories":[],"categories_nodes":[],"categories_segments":[],"categories_sizes":[],"default_left":[0,0,0,0,0,0,0,0,0,0,0,0,0,0,0,0,0,0,0,0,0,0,0,0,0,0,0,0,0,0,0,0,0,0,0,0,0,0,0,0,0,0,0,0,0,0,0,0,0,0,0,0,0,0,0,0,0,0,0,0,0,0,0,0,0,0,0,0,0,0,0,0,0,0,0,0,0,0,0,0,0,0,0,0,0,0,0,0,0,0,0,0,0,0,0,0,0,0,0,0,0,0,0,0,0,0,0,0,0,0,0,0,0,0,0,0,0,0,0,0,0,0,0,0,0,0,0],"id":10,"left_children":[1,3,5,7,9,11,13,15,17,19,21,23,25,27,29,31,33,35,37,39,41,43,45,47,49,51,53,55,57,59,61,63,65,67,69,71,73,75,77,79,81,83,85,87,89,91,93,95,97,99,101,103,105,107,109,111,113,115,117,119,121,123,125,-1,-1,-1,-1,-1,-1,-1,-1,-1,-1,-1,-1,-1,-1,-1,-1,-1,-1,-1,-1,-1,-1,-1,-1,-1,-1,-1,-1,-1,-1,-1,-1,-1,-1,-1,-1,-1,-1,-1,-1,-1,-1,-1,-1,-1,-1,-1,-1,-1,-1,-1,-1,-1,-1,-1,-1,-1,-1,-1,-1,-1,-1,-1,-1],"loss_changes":[4.3820375E4,1.4877297E4,7.417914E3,3.33342E3,2.3262112E3,1.4476982E3,1.091502E3,7.1620703E2,5.253115E2,6.7765625E2,9.461453E2,8.5764307E2,4.800791E2,5.975869E2,5.456963E2,1.7993457E2,2.1521094E2,2.349541E2,3.4064453E2,4.4871045E2,1.3847388E2,1.312157E2,3.942677E2,2.926864E2,3.7837744E2,5.616748E1,1.6058154E2,1.6487842E2,2.3978223E2,1.2434436E2,1.4964453E2,6.534961E1,7.176178E0,5.3273438E1,1.565152E1,4.7762207E1,4.7550537E1,5.8931152E1,5.9330933E1,7.117236E1,1.6315356E2,3.334549E1,7.341088E1,4.384729E1,1.3017015E2,2.0480746E2,9.6101685E1,9.821594E1,8.592529E1,6.682208E1,3.08771E2,1.4718338E1,5.0678955E1,1.0725391E2,7.7168884E0,3.5363823E1,1.10881836E2,2.5953125E2,1.3879785E2,2.4688477E1,3.169928E1,1.6318652E2,1.3271631E2,0E0,0E0,0E0,0E0,0E0,0E0,0E0,0E0,0E0,0E0,0E0,0E0,0E0,0E0,0E0,0E0,0E0,0E0,0E0,0E0,0E0,0E0,0E0,0E0,0E0,0E0,0E0,0E0,0E0,0E0,0E0,0E0,0E0,0E0,0E0,0E0,0E0,0E0,0E0,0E0,0E0,0E0,0E0,0E0,0E0,0E0,0E0,0E0,0E0,0E0,0E0,0E0,0E0,0E0,0E0,0E0,0E0,0E0,0E0,0E0,0E0,0E0,0E0,0E0],"parents":[2147483647,0,0,1,1,2,2,3,3,4,4,5,5,6,6,7,7,8,8,9,9,10,10,11,11,12,12,13,13,14,14,15,15,16,16,17,17,18,18,19,19,20,20,21,21,22,22,23,23,24,24,25,25,26,26,27,27,28,28,29,29,30,30,31,31,32,32,33,33,34,34,35,35,36,36,37,37,38,38,39,39,40,40,41,41,42,42,43,43,44,44,45,45,46,46,47,47,48,48,49,49,50,50,51,51,52,52,53,53,54,54,55,55,56,56,57,57,58,58,59,59,60,60,61,61,62,62],"right_children":[2,4,6,8,10,12,14,16,18,20,22,24,26,28,30,32,34,36,38,40,42,44,46,48,50,52,54,56,58,60,62,64,66,68,70,72,74,76,78,80,82,84,86,88,90,92,94,96,98,100,102,104,106,108,110,112,114,116,118,120,122,124,126,-1,-1,-1,-1,-1,-1,-1,-1,-1,-1,-1,-1,-1,-1,-1,-1,-1,-1,-1,-1,-1,-1,-1,-1,-1,-1,-1,-1,-1,-1,-1,-1,-1,-1,-1,-1,-1,-1,-1,-1,-1,-1,-1,-1,-1,-1,-1,-1,-1,-1,-1,-1,-1,-1,-1,-1,-1,-1,-1,-1,-1,-1,-1,-1],"split_conditions":[3.1249857E-1,-8.327228E-1,1.4105507E0,-1.7931767E0,-1.6601543E-1,1.415041E-1,2.3300703E0,-2.5007617E0,-1.2352335E0,2.088761E-1,-1.9795226E-1,8.0673796E-1,8.356294E-1,-4.6664336E-1,-6.534925E-1,4.263016E0,1.4056209E0,4.32269E-1,2.8728592E-1,-5.3847045E-1,-6.3745296E-1,-1.0064261E0,5.445906E-1,-6.223235E-1,-9.32947E-1,3.8082448E-1,1.2851286E0,-1.0478853E0,4.1815376E-1,2.5451066E0,2.1364716E-1,-2.7367535E0,1.3290975E0,-2.170011E0,-1.8902118E0,2.5078964E-1,4.263016E0,-1.0478853E0,5.2139264E-1,-6.785857E-1,-1.0064261E0,7.189075E-1,4.32269E-1,5.6299925E-2,-3.3694408E-3,-1.5186478E-1,-1.0091354E-1,-1.0064261E0,5.03409E-1,-1.1257149E0,1.381936E-1,1.7412998E-1,7.236993E-1,9.134902E-1,8.745338E-1,-1.4967195E0,2.0148952E0,2.152684E0,1.1697696E0,2.4248095E0,-9.554325E-1,3.033372E0,2.4248095E0,-8.413798E-2,-6.9961846E-2,-4.8963655E-2,-3.38138E-2,-6.15712E-2,-5.1622976E-2,-3.4231674E-2,-2.1156339E-2,-4.3416746E-2,-3.6676906E-2,-3.0195264E-2,-1.8231181E-2,-5.516965E-2,-2.8733766E-2,-1.9608667E-2,-1.0196154E-2,-2.5329808E-2,-1.8400267E-2,-2.148757E-2,-1.0160037E-2,-1.2887436E-2,-2.9292502E-3,-2.879027E-3,5.1170364E-3,-2.2668945E-2,-9.966798E-3,-7.3606395E-3,-8.991174E-4,2.9625341E-2,4.209145E-3,2.4831423E-3,2.4376862E-2,-2.101526E-3,6.950705E-3,1.0483141E-2,1.7386427E-2,2.5586626E-3,1.424333E-2,2.6237695E-2,-1.609023E-2,5.600726E-3,1.830565E-2,2.9343313E-2,2.1573193E-2,6.1685074E-2,4.2781405E-2,1.3682379E-2,2.7105529E-2,-6.6394988E-3,1.739612E-2,3.0699456E-2,4.793025E-2,4.5056313E-2,8.247122E-2,7.135686E-2,4.7771316E-2,2.2906633E-2,4.0425718E-2,4.7360603E-2,7.06543E-2,6.61992E-2,1.0411047E-1,1.2856285E-1,8.478963E-2],"split_indices":[3,3,3,3,3,0,3,3,3,0,0,3,3,0,0,0,0,0,0,3,3,0,0,0,0,3,0,0,0,3,0,3,2,3,3,0,0,0,0,0,0,0,0,3,3,3,3,0,3,0,0,0,3,3,3,0,3,3,0,3,0,3,3,0,0,0,0,0,0,0,0,0,0,0,0,0,0,0,0,0,0,0,0,0,0,0,0,0,0,0,0,0,0,0,0,0,0,0,0,0,0,0,0,0,0,0,0,0,0,0,0,0,0,0,0,0,0,0,0,0,0,0,0,0,0,0,0],"split_type":[0,0,0,0,0,0,0,0,0,0,0,0,0,0,0,0,0,0,0,0,0,0,0,0,0,0,0,0,0,0,0,0,0,0,0,0,0,0,0,0,0,0,0,0,0,0,0,0,0,0,0,0,0,0,0,0,0,0,0,0,0,0,0,0,0,0,0,0,0,0,0,0,0,0,0,0,0,0,0,0,0,0,0,0,0,0,0,0,0,0,0,0,0,0,0,0,0,0,0,0,0,0,0,0,0,0,0,0,0,0,0,0,0,0,0,0,0,0,0,0,0,0,0,0,0,0,0],"sum_hessian":[1.201369E6,7.934E5,4.07969E5,2.01321E5,5.92079E5,3.02128E5,1.05841E5,4.9558E4,1.51763E5,3.17817E5,2.74262E5,2.34674E5,6.7454E4,8.3359E4,2.2482E4,1.6985E4,3.2573E4,6.0405E4,9.1358E4,2.53406E5,6.4411E4,1.36299E5,1.37963E5,1.32196E5,1.02478E5,4.1676E4,2.5778E4,2.4768E4,5.8591E4,5.733E3,1.6749E4,1.5327E4,1.658E3,2.8256E4,4.317E3,4.4438E4,1.5967E4,6.3484E4,2.7874E4,7.8232E4,1.75174E5,1.689E4,4.7521E4,1.1192E4,1.25107E5,1.21328E5,1.6635E4,6.0055E4,7.2141E4,2.5185E4,7.7293E4,5.893E3,3.5783E4,2.0983E4,4.795E3,4.269E3,2.0499E4,4.7657E4,1.0934E4,3.36E3,2.373E3,1.0587E4,6.162E3,1.0564E4,4.763E3,1.223E3,4.35E2,7.296E3,2.096E4,2.987E3,1.33E3,2.7203E4,1.7235E4,1.1243E4,4.724E3,8.55E2,6.2629E4,1.6677E4,1.1197E4,1.9883E4,5.8349E4,1.3803E4,1.61371E5,1.2255E4,4.635E3,2.8115E4,1.9406E4,4.653E3,6.539E3,5.9028E4,6.6079E4,3.257E3,1.18071E5,2.332E3,1.4303E4,1.6542E4,4.3513E4,3.6356E4,3.5785E4,6.651E3,1.8534E4,7.553E4,1.763E3,1.129E3,4.764E3,2.229E4,1.3493E4,3.637E3,1.7346E4,4.79E2,4.316E3,7.4E2,3.529E3,1.5581E4,4.918E3,4.5724E4,1.933E3,7.059E3,3.875E3,2.014E3,1.346E3,1.103E3,1.27E3,9.29E3,1.297E3,8E2,5.362E3],"tree_param":{"num_deleted":"0","num_feature":"4","num_nodes":"127","size_leaf_vector":"1"}},{"base_weights":[-4.568164E-4,-1.23771064E-1,2.3921868E-1,-3.7719274E-1,-6.365986E-2,1.5360616E-1,4.1012275E-1,-6.04959E-1,-3.1932697E-1,-1.3102831E-1,-1.986008E-3,1.149111E-1,2.5545686E-1,3.4926963E-1,5.524329E-1,-7.29148E-1,-5.2955663E-1,-3.9430404E-1,-2.7568862E-1,-1.4805819E-1,-3.3738855E-2,-2.9037423E-2,1.0162356E-1,7.5927235E-2,1.6961613E-1,2.169904E-1,3.3180907E-1,2.4789213E-1,4.252341E-1,4.54455E-1,6.8598336E-1,-7.566807E-1,-4.5983884E-1,-5.789175E-1,-3.5601252E-1,-4.3456873E-1,-2.9213822E-1,-3.156947E-1,-1.9555603E-1,-2.017528E-1,-1.1156639E-1,-8.941931E-2,1.8996244E-2,-5.309419E-2,1.0289845E-2,7.6971374E-2,2.0823796E-1,-1.2523115E-2,8.9683086E-2,-6.8396763E-3,1.8378448E-1,1.4291191E-1,2.2915334E-1,1.8800186E-1,3.6980462E-1,1.1187006E-1,2.7909815E-1,3.9878404E-1,5.19785E-1,4.2542738E-1,8.7794936E-1,6.333809E-1,8.0936456E-1,-8.659723E-2,-7.27358E-2,-5.9346825E-2,-4.2562954E-2,-6.29251E-2,-5.251813E-2,-4.2421248E-2,-3.0571273E-2,-4.6924915E-2,-3.940659E-2,-3.3790123E-2,-1.9945648E-2,-1.277457E-1,-3.140118E-2,-2.2675607E-2,-1.2794782E-2,-4.0054325E-2,-1.9743403E-2,-1.2677965E-2,-5.125544E-3,-1.2757971E-2,-4.304016E-3,4.771449E-3,3.2027994E-4,-8.128646E-3,-1.8944147E-3,-4.6358635E-3,2.5661453E-3,3.7196882E-3,9.317357E-3,4.7653387E-3,2.6420137E-2,-9.539361E-3,2.890933E-3,7.3833847E-3,1.478334E-2,1.2240833E-2,-6.257248E-3,1.4176184E-2,2.1127814E-2,2.1386454E-2,8.816349E-3,3.722158E-2,2.2180116E-2,3.5241693E-2,-1.6970484E-2,4.219283E-2,2.7706007E-2,9.9012805E-3,2.2898871E-2,2.4928227E-2,3.8334545E-2,4.2416334E-2,1.635459E-2,6.009238E-2,3.587782E-2,4.7260102E-2,2.3363186E-2,5.9238672E-2,1.1483578E-1,6.710347E-2,4.801399E-2,6.9347985E-2,8.629643E-2],"categories":[],"categories_nodes":[],"categories_segments":[],"categories_sizes":[],"default_left":[0,0,0,0,0,0,0,0,0,0,0,0,0,0,0,0,0,0,0,0,0,0,0,0,0,0,0,0,0,0,0,0,0,0,0,0,0,0,0,0,0,0,0,0,0,0,0,0,0,0,0,0,0,0,0,0,0,0,0,0,0,0,0,0,0,0,0,0,0,0,0,0,0,0,0,0,0,0,0,0,0,0,0,0,0,0,0,0,0,0,0,0,0,0,0,0,0,0,0,0,0,0,0,0,0,0,0,0,0,0,0,0,0,0,0,0,0,0,0,0,0,0,0,0,0,0,0],"id":11,"left_children":[1,3,5,7,9,11,13,15,17,19,21,23,25,27,29,31,33,35,37,39,41,43,45,47,49,51,53,55,57,59,61,63,65,67,69,71,73,75,77,79,81,83,85,87,89,91,93,95,97,99,101,103,105,107,109,111,113,115,117,119,121,123,125,-1,-1,-1,-1,-1,-1,-1,-1,-1,-1,-1,-1,-1,-1,-1,-1,-1,-1,-1,-1,-1,-1,-1,-1,-1,-1,-1,-1,-1,-1,-1,-1,-1,-1,-1,-1,-1,-1,-1,-1,-1,-1,-1,-1,-1,-1,-1,-1,-1,-1,-1,-1,-1,-1,-1,-1,-1,-1,-1,-1,-1,-1,-1,-1],"loss_changes":[3.551165E4,1.2085412E4,5.97225E3,2.0044922E3,2.6642944E3,1.0717656E3,1.1795605E3,2.8815137E2,3.9673535E2,5.0777002E2,9.382998E2,4.202827E2,2.1982959E2,7.347949E2,5.335947E2,8.594531E1,1.6406104E2,1.8342578E2,2.45729E2,5.110293E2,1.3406206E2,2.5115257E2,1.821499E2,1.4001648E2,2.0501831E2,4.4830566E1,1.3697949E2,1.7348828E2,1.3621582E2,2.889922E2,1.1154053E2,3.3202637E1,4.6936035E0,4.004541E1,1.4446289E1,4.476953E1,5.344629E1,8.236865E1,5.383185E1,9.0523926E1,1.4247339E2,3.929927E1,1.0635378E1,1.5857574E2,8.773644E1,3.6274963E1,1.1696039E2,5.3184658E1,9.177411E1,4.3919296E1,8.7671875E1,2.727005E1,4.490161E1,3.084719E2,9.5788574E1,1.1466759E1,1.0325293E2,2.5443945E2,1.5551904E2,1.99219E2,1.1584253E2,6.954785E1,3.1433838E1,0E0,0E0,0E0,0E0,0E0,0E0,0E0,0E0,0E0,0E0,0E0,0E0,0E0,0E0,0E0,0E0,0E0,0E0,0E0,0E0,0E0,0E0,0E0,0E0,0E0,0E0,0E0,0E0,0E0,0E0,0E0,0E0,0E0,0E0,0E0,0E0,0E0,0E0,0E0,0E0,0E0,0E0,0E0,0E0,0E0,0E0,0E0,0E0,0E0,0E0,0E0,0E0,0E0,0E0,0E0,0E0,0E0,0E0,0E0,0E0,0E0,0E0,0E0,0E0],"parents":[2147483647,0,0,1,1,2,2,3,3,4,4,5,5,6,6,7,7,8,8,9,9,10,10,11,11,12,12,13,13,14,14,15,15,16,16,17,17,18,18,19,19,20,20,21,21,22,22,23,23,24,24,25,25,26,26,27,27,28,28,29,29,30,30,31,31,32,32,33,33,34,34,35,35,36,36,37,37,38,38,39,39,40,40,41,41,42,42,43,43,44,44,45,45,46,46,47,47,48,48,49,49,50,50,51,51,52,52,53,53,54,54,55,55,56,56,57,57,58,58,59,59,60,60,61,61,62,62],"right_children":[2,4,6,8,10,12,14,16,18,20,22,24,26,28,30,32,34,36,38,40,42,44,46,48,50,52,54,56,58,60,62,64,66,68,70,72,74,76,78,80,82,84,86,88,90,92,94,96,98,100,102,104,106,108,110,112,114,116,118,120,122,124,126,-1,-1,-1,-1,-1,-1,-1,-1,-1,-1,-1,-1,-1,-1,-1,-1,-1,-1,-1,-1,-1,-1,-1,-1,-1,-1,-1,-1,-1,-1,-1,-1,-1,-1,-1,-1,-1,-1,-1,-1,-1,-1,-1,-1,-1,-1,-1,-1,-1,-1,-1,-1,-1,-1,-1,-1,-1,-1,-1,-1,-1,-1,-1,-1],"split_conditions":[3.1249857E-1,-9.9172735E-1,1.2218473E0,-2.034883E0,-2.5349003E-1,9.335696E-2,2.0148952E0,-2.7367535E0,-1.5065309E0,3.207309E-1,1.5180825E-1,7.540198E-1,8.356294E-1,-2.4094573E-1,1.2743245E-2,4.263016E0,8.6626655E-1,4.4488132E-1,3.1430256E-1,-5.908123E-1,-6.3745296E-1,-1.8985038E-1,9.8044455E-1,-1.0064261E0,-1.0891194E0,3.8082448E-1,1.415041E-1,-9.787666E-1,3.9674336E-1,3.033372E0,2.7066767E0,2.3446386E-1,-4.8056865E-1,-2.256151E0,4.263016E0,2.3738126E-1,4.263016E0,-1.3292422E0,8.6626655E-1,-1.0186697E0,1.3496344E-1,5.775932E-1,-4.7673544E-1,-3.3694408E-3,-1.6544019E-1,-1.0824771E-1,-1.0091354E-1,4.5520043E-1,-3.983791E-2,8.5483724E-1,-7.162975E-1,3.4391358E-1,3.9455873E-1,1.381936E-1,1.0542912E0,1.7036357E0,1.7036357E0,3.7543017E-1,1.1697696E0,-5.5997476E-2,-7.690355E-1,1.1697696E0,1.5647024E-1,-8.659723E-2,-7.27358E-2,-5.9346825E-2,-4.2562954E-2,-6.29251E-2,-5.251813E-2,-4.2421248E-2,-3.0571273E-2,-4.6924915E-2,-3.940659E-2,-3.3790123E-2,-1.9945648E-2,-1.277457E-1,-3.140118E-2,-2.2675607E-2,-1.2794782E-2,-4.0054325E-2,-1.9743403E-2,-1.2677965E-2,-5.125544E-3,-1.2757971E-2,-4.304016E-3,4.771449E-3,3.2027994E-4,-8.128646E-3,-1.8944147E-3,-4.6358635E-3,2.5661453E-3,3.7196882E-3,9.317357E-3,4.7653387E-3,2.6420137E-2,-9.539361E-3,2.890933E-3,7.3833847E-3,1.478334E-2,1.2240833E-2,-6.257248E-3,1.4176184E-2,2.1127814E-2,2.1386454E-2,8.816349E-3,3.722158E-2,2.2180116E-2,3.5241693E-2,-1.6970484E-2,4.219283E-2,2.7706007E-2,9.9012805E-3,2.2898871E-2,2.4928227E-2,3.8334545E-2,4.2416334E-2,1.635459E-2,6.009238E-2,3.587782E-2,4.7260102E-2,2.3363186E-2,5.9238672E-2,1.1483578E-1,6.710347E-2,4.801399E-2,6.9347985E-2,8.629643E-2],"split_indices":[3,3,3,3,3,0,3,3,3,0,0,3,3,0,0,0,0,0,0,3,3,0,0,0,0,3,0,0,0,3,3,0,2,3,0,0,0,0,0,0,0,0,3,3,3,3,3,3,0,3,0,3,3,0,3,3,3,0,0,0,0,0,0,0,0,0,0,0,0,0,0,0,0,0,0,0,0,0,0,0,0,0,0,0,0,0,0,0,0,0,0,0,0,0,0,0,0,0,0,0,0,0,0,0,0,0,0,0,0,0,0,0,0,0,0,0,0,0,0,0,0,0,0,0,0,0,0],"split_type":[0,0,0,0,0,0,0,0,0,0,0,0,0,0,0,0,0,0,0,0,0,0,0,0,0,0,0,0,0,0,0,0,0,0,0,0,0,0,0,0,0,0,0,0,0,0,0,0,0,0,0,0,0,0,0,0,0,0,0,0,0,0,0,0,0,0,0,0,0,0,0,0,0,0,0,0,0,0,0,0,0,0,0,0,0,0,0,0,0,0,0,0,0,0,0,0,0,0,0,0,0,0,0,0,0,0,0,0,0,0,0,0,0,0,0,0,0,0,0,0,0,0,0,0,0,0,0],"sum_hessian":[1.201526E6,7.93346E5,4.0818E5,1.52101E5,6.41245E5,2.71951E5,1.36229E5,3.0812E4,1.21289E5,3.06473E5,3.34772E5,1.97079E5,7.4872E4,9.5427E4,4.0802E4,1.1637E4,1.9175E4,4.4619E4,7.667E4,2.60818E5,4.5655E4,2.65463E5,6.9309E4,1.15076E5,8.2003E4,4.9791E4,2.5081E4,4.0878E4,5.4549E4,2.3538E4,1.7264E4,1.0556E4,1.081E3,1.4927E4,4.248E3,3.2003E4,1.2616E4,5.1137E4,2.5533E4,1.05532E5,1.55286E5,2.2207E4,2.3448E4,1.64709E5,1.00754E5,5.6294E4,1.3015E4,1.5488E4,9.9588E4,6.095E3,7.5908E4,7.024E3,4.2767E4,5.243E3,1.9838E4,7.629E3,3.3249E4,4.2629E4,1.192E4,2.203E4,1.508E3,1.2108E4,5.156E3,2.227E3,8.329E3,2.17E2,8.64E2,7.702E3,7.225E3,1.8E3,2.448E3,1.7235E4,1.4768E4,8.444E3,4.172E3,8.8E1,5.1049E4,1.7469E4,8.064E3,2.242E3,1.0329E5,1.24005E5,3.1281E4,1.2182E4,1.0025E4,8.319E3,1.5129E4,9.0224E4,7.4485E4,2.1504E4,7.925E4,1.6295E4,3.9999E4,3.364E3,9.651E3,5.162E3,1.0326E4,7.826E4,2.1328E4,1.836E3,4.259E3,3.0024E4,4.5884E4,3.058E3,3.966E3,2.088E3,4.0679E4,3.592E3,1.651E3,1.2698E4,7.14E3,6.876E3,7.53E2,2.5857E4,7.392E3,3.8477E4,4.152E3,7.924E3,3.996E3,1.768E4,4.35E3,7.35E2,7.73E2,9.717E3,2.391E3,1.635E3,3.521E3],"tree_param":{"num_deleted":"0","num_feature":"4","num_nodes":"127","size_leaf_vector":"1"}},{"base_weights":[8.8470224E-5,-1.3907942E-1,1.7250952E-1,-3.5904062E-1,-8.4667645E-2,1.05315074E-1,3.6914238E-1,-5.924423E-1,-3.1319147E-1,-1.5187255E-1,-3.513183E-2,5.9057876E-2,1.7054339E-1,3.1447548E-1,4.9668556E-1,-6.2371266E-1,-3.8784692E-1,-4.3039313E-1,-2.3773381E-1,-2.3196062E-1,-9.294247E-2,-1.16829574E-1,-3.9138487E-3,-2.6474044E-2,9.3806006E-2,1.393048E-1,2.6787913E-1,2.2297643E-1,3.831668E-1,2.4585412E-1,5.406069E-1,-6.933221E-1,-5.316031E-1,-4.6919882E-1,-3.299155E-1,-4.99877E-1,-3.794721E-1,-3.1510317E-1,-1.9873066E-1,-2.7666727E-1,-1.9522734E-1,-2.3117578E-2,-1.0368822E-1,-2.0645933E-1,-8.55081E-2,-8.23705E-2,3.4160867E-2,-1.3276517E-1,-1.9146677E-2,3.8812064E-2,1.7429493E-1,7.471384E-2,1.6724755E-1,1.5109979E-1,3.1523827E-1,9.67049E-2,2.517195E-1,2.665147E-1,4.3083003E-1,1.6503455E-1,3.6178753E-1,5.1709604E-1,8.028052E-1,-7.506387E-2,-6.275817E-2,-6.0352948E-2,-4.3856543E-2,-5.8692433E-2,-4.4092696E-2,-3.7988704E-2,-2.136823E-2,-5.4719277E-2,-3.9759368E-2,-4.1369203E-2,-2.7044127E-2,-3.3659976E-2,-1.6395433E-2,-2.302283E-2,-9.449327E-3,-3.0487059E-2,-2.0949198E-2,-2.2446038E-2,-1.415237E-2,-2.3182046E-4,-2.2877855E-2,-1.1793415E-2,-3.0892123E-3,-3.258882E-2,-1.9421076E-2,-1.7423684E-2,-6.4959466E-3,-1.138365E-2,-2.6042322E-3,1.7389905E-3,1.3224977E-2,-1.6203796E-2,2.9928824E-3,2.075323E-3,-3.6502134E-3,1.886865E-3,1.027467E-2,1.4448101E-2,2.2959044E-2,4.215214E-3,1.09481625E-2,4.9532796E-3,1.8887421E-2,9.332594E-3,2.1127928E-2,2.5231604E-2,3.8838904E-2,-5.4619038E-3,1.315312E-2,1.7293993E-2,2.8476244E-2,-1.7788004E-2,2.7667034E-2,4.0738415E-2,5.2661296E-2,8.529216E-4,2.450882E-2,3.151467E-2,5.0725188E-2,4.283778E-2,5.9391994E-2,9.685707E-2,7.217377E-2],"categories":[],"categories_nodes":[],"categories_segments":[],"categories_sizes":[],"default_left":[0,0,0,0,0,0,0,0,0,0,0,0,0,0,0,0,0,0,0,0,0,0,0,0,0,0,0,0,0,0,0,0,0,0,0,0,0,0,0,0,0,0,0,0,0,0,0,0,0,0,0,0,0,0,0,0,0,0,0,0,0,0,0,0,0,0,0,0,0,0,0,0,0,0,0,0,0,0,0,0,0,0,0,0,0,0,0,0,0,0,0,0,0,0,0,0,0,0,0,0,0,0,0,0,0,0,0,0,0,0,0,0,0,0,0,0,0,0,0,0,0,0,0,0,0,0,0],"id":12,"left_children":[1,3,5,7,9,11,13,15,17,19,21,23,25,27,29,31,33,35,37,39,41,43,45,47,49,51,53,55,57,59,61,63,65,67,69,71,73,75,77,79,81,83,85,87,89,91,93,95,97,99,101,103,105,107,109,111,113,115,117,119,121,123,125,-1,-1,-1,-1,-1,-1,-1,-1,-1,-1,-1,-1,-1,-1,-1,-1,-1,-1,-1,-1,-1,-1,-1,-1,-1,-1,-1,-1,-1,-1,-1,-1,-1,-1,-1,-1,-1,-1,-1,-1,-1,-1,-1,-1,-1,-1,-1,-1,-1,-1,-1,-1,-1,-1,-1,-1,-1,-1,-1,-1,-1,-1,-1,-1],"loss_changes":[2.8845268E4,7.961425E3,7.0939707E3,1.4115039E3,1.7753271E3,1.2074023E3,9.53291E2,1.3832178E2,9.7501953E2,1.0679521E3,7.8298676E2,6.9586017E2,5.0481445E2,6.015459E2,4.5183398E2,1.20075195E2,1.3389923E1,1.5260303E2,2.0235522E2,1.5747119E2,9.781238E1,2.3826062E2,6.6353784E2,5.26778E1,7.369584E2,2.2685132E2,2.230498E2,1.4896008E2,3.0387305E2,5.723593E1,2.1479395E2,3.9831055E1,5.387256E1,3.7118835E0,9.688477E0,8.815381E1,9.288379E1,7.298657E1,1.464071E2,8.190088E1,8.264026E1,7.4378716E1,1.17158936E2,3.2088318E1,1.14669525E2,1.286323E2,2.4601422E2,2.0778893E1,4.3820267E1,1.2611955E2,1.11379395E2,4.296869E1,2.2335474E2,4.0453705E1,1.3199829E2,4.012809E1,8.699097E1,7.163623E1,8.694824E1,4.516432E1,1.6876251E1,2.1812695E2,3.7881958E1,0E0,0E0,0E0,0E0,0E0,0E0,0E0,0E0,0E0,0E0,0E0,0E0,0E0,0E0,0E0,0E0,0E0,0E0,0E0,0E0,0E0,0E0,0E0,0E0,0E0,0E0,0E0,0E0,0E0,0E0,0E0,0E0,0E0,0E0,0E0,0E0,0E0,0E0,0E0,0E0,0E0,0E0,0E0,0E0,0E0,0E0,0E0,0E0,0E0,0E0,0E0,0E0,0E0,0E0,0E0,0E0,0E0,0E0,0E0,0E0,0E0,0E0,0E0,0E0],"parents":[2147483647,0,0,1,1,2,2,3,3,4,4,5,5,6,6,7,7,8,8,9,9,10,10,11,11,12,12,13,13,14,14,15,15,16,16,17,17,18,18,19,19,20,20,21,21,22,22,23,23,24,24,25,25,26,26,27,27,28,28,29,29,30,30,31,31,32,32,33,33,34,34,35,35,36,36,37,37,38,38,39,39,40,40,41,41,42,42,43,43,44,44,45,45,46,46,47,47,48,48,49,49,50,50,51,51,52,52,53,53,54,54,55,55,56,56,57,57,58,58,59,59,60,60,61,61,62,62],"right_children":[2,4,6,8,10,12,14,16,18,20,22,24,26,28,30,32,34,36,38,40,42,44,46,48,50,52,54,56,58,60,62,64,66,68,70,72,74,76,78,80,82,84,86,88,90,92,94,96,98,100,102,104,106,108,110,112,114,116,118,120,122,124,126,-1,-1,-1,-1,-1,-1,-1,-1,-1,-1,-1,-1,-1,-1,-1,-1,-1,-1,-1,-1,-1,-1,-1,-1,-1,-1,-1,-1,-1,-1,-1,-1,-1,-1,-1,-1,-1,-1,-1,-1,-1,-1,-1,-1,-1,-1,-1,-1,-1,-1,-1,-1,-1,-1,-1,-1,-1,-1,-1,-1,-1,-1,-1,-1],"split_conditions":[7.25784E-2,-1.0997654E0,1.2218473E0,-2.256151E0,1.3507059E-2,5.43299E-1,2.0148952E0,1.4056209E0,1.3507059E-2,-3.8728228E-1,-4.4245383E-1,-3.5281435E-1,1.415041E-1,-2.4094573E-1,-9.0594345E-1,7.461499E-1,1.3507059E-2,-1.5799488E0,-1.6711601E0,-6.9615775E-1,-1.8181E0,-4.9242753E-1,-6.0097957E-1,9.038813E-2,-3.983791E-2,-3.5281435E-1,-3.5281435E-1,-9.787666E-1,-3.5281435E-1,2.4248095E0,3.033372E0,-2.7367535E0,-2.7367535E0,4.263016E0,-2.5007617E0,4.4488132E-1,4.32269E-1,1.2851286E0,4.32269E-1,-3.5281435E-1,1.3496344E-1,-1.4539951E-1,2.0547055E-1,-1.0478853E0,-1.0293838E0,2.245253E-1,3.4593552E-1,6.045977E-2,-6.785857E-1,4.2248425E-1,2.3446386E-1,8.507405E-1,-1.0186697E0,8.356294E-1,8.479805E-1,-7.1913576E-1,1.3278809E0,-1.8181E0,4.1815376E-1,-1.218265E0,-9.554325E-1,-4.7634106E-2,-1.5054923E-1,-7.506387E-2,-6.275817E-2,-6.0352948E-2,-4.3856543E-2,-5.8692433E-2,-4.4092696E-2,-3.7988704E-2,-2.136823E-2,-5.4719277E-2,-3.9759368E-2,-4.1369203E-2,-2.7044127E-2,-3.3659976E-2,-1.6395433E-2,-2.302283E-2,-9.449327E-3,-3.0487059E-2,-2.0949198E-2,-2.2446038E-2,-1.415237E-2,-2.3182046E-4,-2.2877855E-2,-1.1793415E-2,-3.0892123E-3,-3.258882E-2,-1.9421076E-2,-1.7423684E-2,-6.4959466E-3,-1.138365E-2,-2.6042322E-3,1.7389905E-3,1.3224977E-2,-1.6203796E-2,2.9928824E-3,2.075323E-3,-3.6502134E-3,1.886865E-3,1.027467E-2,1.4448101E-2,2.2959044E-2,4.215214E-3,1.09481625E-2,4.9532796E-3,1.8887421E-2,9.332594E-3,2.1127928E-2,2.5231604E-2,3.8838904E-2,-5.4619038E-3,1.315312E-2,1.7293993E-2,2.8476244E-2,-1.7788004E-2,2.7667034E-2,4.0738415E-2,5.2661296E-2,8.529216E-4,2.450882E-2,3.151467E-2,5.0725188E-2,4.283778E-2,5.9391994E-2,9.685707E-2,7.217377E-2],"split_indices":[3,3,3,3,1,3,3,0,1,3,0,1,0,0,0,1,1,3,3,3,1,3,3,3,0,1,1,0,1,3,3,3,3,0,3,0,0,0,0,1,0,3,0,0,0,0,0,0,0,3,0,3,0,3,3,1,3,1,0,0,0,0,0,0,0,0,0,0,0,0,0,0,0,0,0,0,0,0,0,0,0,0,0,0,0,0,0,0,0,0,0,0,0,0,0,0,0,0,0,0,0,0,0,0,0,0,0,0,0,0,0,0,0,0,0,0,0,0,0,0,0,0,0,0,0,0,0],"split_type":[0,0,0,0,0,0,0,0,0,0,0,0,0,0,0,0,0,0,0,0,0,0,0,0,0,0,0,0,0,0,0,0,0,0,0,0,0,0,0,0,0,0,0,0,0,0,0,0,0,0,0,0,0,0,0,0,0,0,0,0,0,0,0,0,0,0,0,0,0,0,0,0,0,0,0,0,0,0,0,0,0,0,0,0,0,0,0,0,0,0,0,0,0,0,0,0,0,0,0,0,0,0,0,0,0,0,0,0,0,0,0,0,0,0,0,0,0,0,0,0,0,0,0,0,0,0,0],"sum_hessian":[1.202111E6,6.65201E5,5.3691E5,1.31917E5,5.33284E5,4.00165E5,1.36745E5,2.1657E4,1.1026E5,2.26284E5,3.07E5,2.34131E5,1.66034E5,